{"learner":{"attributes":{"scikit_learn":"{\"_estimator_type\": \"regressor\"}"},"feature_names":["utility_on_time_pct","utility_bills_missed_12m","recharge_delay_std_days","upi_inflow_regularity_score","essential_spending_ratio","ecommerce_orders_30d"],"feature_types":["float","int","float","float","float","int"],"gradient_booster":{"model":{"cats":{"enc":[],"feature_segments":[],"sorted_idx":[]},"gbtree_model_param":{"num_parallel_tree":"1","num_trees":"150"},"iteration_indptr":[0,1,2,3,4,5,6,7,8,9,10,11,12,13,14,15,16,17,18,19,20,21,22,23,24,25,26,27,28,29,30,31,32,33,34,35,36,37,38,39,40,41,42,43,44,45,46,47,48,49,50,51,52,53,54,55,56,57,58,59,60,61,62,63,64,65,66,67,68,69,70,71,72,73,74,75,76,77,78,79,80,81,82,83,84,85,86,87,88,89,90,91,92,93,94,95,96,97,98,99,100,101,102,103,104,105,106,107,108,109,110,111,112,113,114,115,116,117,118,119,120,121,122,123,124,125,126,127,128,129,130,131,132,133,134,135,136,137,138,139,140,141,142,143,144,145,146,147,148,149,150],"tree_info":[0,0,0,0,0,0,0,0,0,0,0,0,0,0,0,0,0,0,0,0,0,0,0,0,0,0,0,0,0,0,0,0,0,0,0,0,0,0,0,0,0,0,0,0,0,0,0,0,0,0,0,0,0,0,0,0,0,0,0,0,0,0,0,0,0,0,0,0,0,0,0,0,0,0,0,0,0,0,0,0,0,0,0,0,0,0,0,0,0,0,0,0,0,0,0,0,0,0,0,0,0,0,0,0,0,0,0,0,0,0,0,0,0,0,0,0,0,0,0,0,0,0,0,0,0,0,0,0,0,0,0,0,0,0,0,0,0,0,0,0,0,0,0,0,0,0,0,0,0,0],"trees":[{"base_weights":[2.2247024E0,2.1810484E1,-4.8557293E1,-1.4415178E1,4.8774307E1,-6.630469E1,-1.045E1,-1.6107692E0,2.3975E0,2.26875E0,6.1442857E0,-8.429999E0,-2.8574998E0,1.4366667E0,-2.83E0],"categories":[],"categories_nodes":[],"categories_segments":[],"categories_sizes":[],"default_left":[0,0,0,0,0,0,0,0,0,0,0,0,0,0,0],"id":0,"left_children":[1,3,5,7,9,11,13,-1,-1,-1,-1,-1,-1,-1,-1],"loss_changes":[4.283247E4,3.0983344E4,7.4227773E3,4.157324E3,8.1217773E3,5.7961562E3,4.1756646E3,0E0,0E0,0E0,0E0,0E0,0E0,0E0,0E0],"parents":[2147483647,0,0,1,1,2,2,3,3,4,4,5,5,6,6],"right_children":[2,4,6,8,10,12,14,-1,-1,-1,-1,-1,-1,-1,-1],"split_conditions":[2E0,7.12E1,8.41E1,8.9E-1,8.7E1,6.9E-1,8.96E1,-1.6107692E0,2.3975E0,2.26875E0,6.1442857E0,-8.429999E0,-2.8574998E0,1.4366667E0,-2.83E0],"split_indices":[1,0,0,4,0,3,0,0,0,0,0,0,0,0,0],"split_type":[0,0,0,0,0,0,0,0,0,0,0,0,0,0,0],"sum_hessian":[4.1E1,3E1,1.1E1,1.3E1,1.7E1,7E0,4E0,1.2E1,1E0,1.1E1,6E0,2E0,5E0,2E0,2E0],"tree_param":{"num_deleted":"0","num_feature":"6","num_nodes":"15","size_leaf_vector":"1"}},{"base_weights":[1.380302E0,-3.1377123E1,3.1350428E1,-6.0078734E-1,-5.26376E1,5.6758133E1,9.147914E0,1.7623534E0,-7.209613E-1,-5.485236E0,-1.8102026E0,1.1812316E0,5.6527786E0,1.284047E0,-1.7209668E0],"categories":[],"categories_nodes":[],"categories_segments":[],"categories_sizes":[],"default_left":[0,0,0,0,0,0,0,0,0,0,0,0,0,0,0],"id":1,"left_children":[1,3,5,7,9,11,13,-1,-1,-1,-1,-1,-1,-1,-1],"loss_changes":[4.516217E4,1.4363406E4,1.3019541E4,2.102008E3,4.6624805E3,5.3781094E3,3.3081848E3,0E0,0E0,0E0,0E0,0E0,0E0,0E0,0E0],"parents":[2147483647,0,0,1,1,2,2,3,3,4,4,5,5,6,6],"right_children":[2,4,6,8,10,12,14,-1,-1,-1,-1,-1,-1,-1,-1],"split_conditions":[7.39E1,5.6E0,6.9E0,5.19E1,6.39E1,2E0,1.16E1,1.7623534E0,-7.209613E-1,-5.485236E0,-1.8102026E0,1.1812316E0,5.6527786E0,1.284047E0,-1.7209668E0],"split_indices":[0,2,2,0,0,5,2,0,0,0,0,0,0,0,0],"split_type":[0,0,0,0,0,0,0,0,0,0,0,0,0,0,0],"sum_hessian":[4.4E1,2.1E1,2.3E1,9E0,1.2E1,1E1,1.3E1,2E0,7E0,7E0,5E0,3E0,7E0,1.1E1,2E0],"tree_param":{"num_deleted":"0","num_feature":"6","num_nodes":"15","size_leaf_vector":"1"}},{"base_weights":[-1.4908785E0,-2.9795378E1,2.4608896E1,-4.485901E-1,-4.8629128E1,5.2838768E1,2.2663982E0,-5.35676E-1,2.2311058E0,-4.9252753E0,-1.6895239E0,1.1103588E0,5.257085E0,1.6651248E0,-1.7523494E0],"categories":[],"categories_nodes":[],"categories_segments":[],"categories_sizes":[],"default_left":[0,0,0,0,0,0,0,0,0,0,0,0,0,0,0],"id":2,"left_children":[1,3,5,7,9,11,13,-1,-1,-1,-1,-1,-1,-1,-1],"loss_changes":[3.5454062E4,1.2690516E4,1.5648393E4,1.9570825E3,3.682289E3,4.605453E3,7.1805864E3,0E0,0E0,0E0,0E0,0E0,0E0,0E0,0E0],"parents":[2147483647,0,0,1,1,2,2,3,3,4,4,5,5,6,6],"right_children":[2,4,6,8,10,12,14,-1,-1,-1,-1,-1,-1,-1,-1],"split_conditions":[7.39E1,5.6E0,6.9E0,8.9E-1,6.39E1,2E0,6.8E-1,-5.35676E-1,2.2311058E0,-4.9252753E0,-1.6895239E0,1.1103588E0,5.257085E0,1.6651248E0,-1.7523494E0],"split_indices":[0,2,2,4,0,5,4,0,0,0,0,0,0,0,0],"split_type":[0,0,0,0,0,0,0,0,0,0,0,0,0,0,0],"sum_hessian":[4.6E1,2.2E1,2.4E1,9E0,1.3E1,1E1,1.4E1,8E0,1E0,8E0,5E0,3E0,7E0,8E0,6E0],"tree_param":{"num_deleted":"0","num_feature":"6","num_nodes":"15","size_leaf_vector":"1"}},{"base_weights":[-4.4792495E0,-2.7625618E1,1.699458E1,-2.4313354E-1,-4.5211277E1,2.9601013E1,-3.9351357E1,-4.9758136E-1,2.1418626E0,-2.208826E0,-5.709674E0,2.912382E0,5.2193195E-1,-3.6046546E0,-6.609619E-1],"categories":[],"categories_nodes":[],"categories_segments":[],"categories_sizes":[],"default_left":[0,0,0,0,0,0,0,0,0,0,0,0,0,0,0],"id":3,"left_children":[1,3,5,7,9,11,13,-1,-1,-1,-1,-1,-1,-1,-1],"loss_changes":[2.3830422E4,1.1064406E4,1.8922871E4,1.7811959E3,4.47551E3,3.0596875E3,5.1483594E2,0E0,0E0,0E0,0E0,0E0,0E0,0E0,0E0],"parents":[2147483647,0,0,1,1,2,2,3,3,4,4,5,5,6,6],"right_children":[2,4,6,8,10,12,14,-1,-1,-1,-1,-1,-1,-1,-1],"split_conditions":[7.39E1,5.6E0,3E0,8.9E-1,2E0,9.1E0,9.46E1,-4.9758136E-1,2.1418626E0,-2.208826E0,-5.709674E0,2.912382E0,5.2193195E-1,-3.6046546E0,-6.609619E-1],"split_indices":[0,2,1,4,1,2,0,0,0,0,0,0,0,0,0],"split_type":[0,0,0,0,0,0,0,0,0,0,0,0,0,0,0],"sum_hessian":[4.6E1,2.2E1,2.4E1,9E0,1.3E1,2E1,4E0,8E0,1E0,9E0,4E0,1.5E1,5E0,3E0,1E0],"tree_param":{"num_deleted":"0","num_feature":"6","num_nodes":"15","size_leaf_vector":"1"}},{"base_weights":[2.573739E-1,-3.0170723E1,2.131308E1,-1.1147817E1,-5.8471313E1,3.3610085E1,-3.705636E1,-1.8190539E0,7.701054E-1,-6.557141E0,-1.6288427E0,1.6092035E0,4.376962E0,-3.3883739E0,-6.345239E-1],"categories":[],"categories_nodes":[],"categories_segments":[],"categories_sizes":[],"default_left":[0,0,0,0,0,0,0,0,0,0,0,0,0,0,0],"id":4,"left_children":[1,3,5,7,9,11,13,-1,-1,-1,-1,-1,-1,-1,-1],"loss_changes":[2.8192488E4,9.038643E3,1.9907469E4,3.1082412E3,4.598506E3,5.1644414E3,4.356245E2,0E0,0E0,0E0,0E0,0E0,0E0,0E0,0E0],"parents":[2147483647,0,0,1,1,2,2,3,3,4,4,5,5,6,6],"right_children":[2,4,6,8,10,12,14,-1,-1,-1,-1,-1,-1,-1,-1],"split_conditions":[7.39E1,1E0,3E0,5.4E-1,6.9E-1,8E-1,9.46E1,-1.8190539E0,7.701054E-1,-6.557141E0,-1.6288427E0,1.6092035E0,4.376962E0,-3.3883739E0,-6.345239E-1],"split_indices":[0,1,1,3,3,3,0,0,0,0,0,0,0,0,0],"split_type":[0,0,0,0,0,0,0,0,0,0,0,0,0,0,0],"sum_hessian":[4.2E1,1.7E1,2.5E1,1.1E1,6E0,2.1E1,4E0,7E0,4E0,3E0,3E0,1.4E1,7E0,3E0,1E0],"tree_param":{"num_deleted":"0","num_feature":"6","num_nodes":"15","size_leaf_vector":"1"}},{"base_weights":[-4.846291E0,7.300675E0,-3.1396982E1,2.3025686E1,-5.335483E0,5.334272E0,-5.9612206E1,1.9889997E-1,3.0495586E0,-1.654345E0,7.20601E-1,-7.480143E-1,1.0462471E0,-6.653631E0,-2.307457E0],"categories":[],"categories_nodes":[],"categories_segments":[],"categories_sizes":[],"default_left":[0,0,0,0,0,0,0,0,0,0,0,0,0,0,0],"id":5,"left_children":[1,3,5,7,9,11,13,-1,-1,-1,-1,-1,-1,-1,-1],"loss_changes":[1.4419674E4,6.2826694E3,1.4827315E4,4.2454795E3,4.1476465E3,9.1827826E2,3.3999922E3,0E0,0E0,0E0,0E0,0E0,0E0,0E0,0E0],"parents":[2147483647,0,0,1,1,2,2,3,3,4,4,5,5,6,6],"right_children":[2,4,6,8,10,12,14,-1,-1,-1,-1,-1,-1,-1,-1],"split_conditions":[2E0,7E0,5.6E0,5.9E-1,5.7E-1,1.5E0,6.9E-1,1.9889997E-1,3.0495586E0,-1.654345E0,7.20601E-1,-7.480143E-1,1.0462471E0,-6.653631E0,-2.307457E0],"split_indices":[1,2,2,4,3,2,3,0,0,0,0,0,0,0,0],"split_type":[0,0,0,0,0,0,0,0,0,0,0,0,0,0,0],"sum_hessian":[4.3E1,3E1,1.3E1,1.3E1,1.7E1,6E0,7E0,6E0,7E0,8E0,9E0,2E0,4E0,3E0,4E0],"tree_param":{"num_deleted":"0","num_feature":"6","num_nodes":"15","size_leaf_vector":"1"}},{"base_weights":[1.7164127E0,-1.5629343E1,2.3312786E1,-5.320038E0,-3.6871613E1,4.3453434E1,-1.1732056E0,-8.145584E-1,1.7906933E0,-3.6552937E0,-1.3303405E0,1.4122761E0,4.9608946E0,1.2517554E0,-1.6898193E0],"categories":[],"categories_nodes":[],"categories_segments":[],"categories_sizes":[],"default_left":[0,0,0,0,0,0,0,0,0,0,0,0,0,0,0],"id":6,"left_children":[1,3,5,7,9,11,13,-1,-1,-1,-1,-1,-1,-1,-1],"loss_changes":[1.6847002E4,5.278668E3,9.914254E3,2.6523987E3,6.6841895E2,4.1719746E3,3.6860479E3,0E0,0E0,0E0,0E0,0E0,0E0,0E0,0E0],"parents":[2147483647,0,0,1,1,2,2,3,3,4,4,5,5,6,6],"right_children":[2,4,6,8,10,12,14,-1,-1,-1,-1,-1,-1,-1,-1],"split_conditions":[7.8E1,8E0,6.9E0,8.9E-1,9.8E0,3E0,6.1E-1,-8.145584E-1,1.7906933E0,-3.6552937E0,-1.3303405E0,1.4122761E0,4.9608946E0,1.2517554E0,-1.6898193E0],"split_indices":[0,2,2,4,2,5,4,0,0,0,0,0,0,0,0],"split_type":[0,0,0,0,0,0,0,0,0,0,0,0,0,0,0],"sum_hessian":[4.3E1,2.4E1,1.9E1,1.7E1,7E0,1E1,9E0,1.5E1,2E0,4E0,3E0,5E0,5E0,5E0,4E0],"tree_param":{"num_deleted":"0","num_feature":"6","num_nodes":"15","size_leaf_vector":"1"}},{"base_weights":[2.5957572E-1,1.3010347E1,-2.8903585E1,2.4187834E0,5.049182E1,-5.2286406E0,-1.7381348E1,-6.812995E-1,1.2708801E0,1.6151452E0,5.4537096E0,1.6834612E-1,-2.9774194E0],"categories":[],"categories_nodes":[],"categories_segments":[],"categories_sizes":[],"default_left":[0,0,0,0,0,0,0,0,0,0,0,0,0],"id":7,"left_children":[1,3,5,7,9,-1,11,-1,-1,-1,-1,-1,-1],"loss_changes":[1.7109424E4,1.2581468E4,4.744501E3,3.964163E3,2.3738105E3,0E0,4.716624E3,0E0,0E0,0E0,0E0,0E0,0E0],"parents":[2147483647,0,0,1,1,2,2,3,3,4,4,6,6],"right_children":[2,4,6,8,10,-1,12,-1,-1,-1,-1,-1,-1],"split_conditions":[2E0,8.7E1,4.6E-1,7.11E1,5.9E-1,-5.2286406E0,3E0,-6.812995E-1,1.2708801E0,1.6151452E0,5.4537096E0,1.6834612E-1,-2.9774194E0],"split_indices":[1,0,3,0,4,0,1,0,0,0,0,0,0],"split_type":[0,0,0,0,0,0,0,0,0,0,0,0,0],"sum_hessian":[4.4E1,3.1E1,1.3E1,2.5E1,6E0,2E0,1.1E1,1.4E1,1.1E1,3E0,3E0,6E0,5E0],"tree_param":{"num_deleted":"0","num_feature":"6","num_nodes":"13","size_leaf_vector":"1"}},{"base_weights":[2.147282E0,-2.0522833E1,2.1894163E1,-6.01261E0,-4.8684334E1,2.871157E1,-1.5496619E0,-1.7582998E0,1.433061E-1,-1.8512607E0,-6.0023074E0,3.3008504E0,1.0841894E0],"categories":[],"categories_nodes":[],"categories_segments":[],"categories_sizes":[],"default_left":[0,0,0,0,0,0,0,0,0,0,0,0,0],"id":8,"left_children":[1,3,5,7,9,11,-1,-1,-1,-1,-1,-1,-1],"loss_changes":[2.0146547E4,8.288504E3,7.3078457E3,1.9083518E3,2.9743047E3,3.4357285E3,0E0,0E0,0E0,0E0,0E0,0E0,0E0],"parents":[2147483647,0,0,1,1,2,2,3,3,4,4,5,5],"right_children":[2,4,6,8,10,12,-1,-1,-1,-1,-1,-1,-1],"split_conditions":[7.25E1,8E0,3E0,4.8E-1,1E0,6.9E0,-1.5496619E0,-1.7582998E0,1.433061E-1,-1.8512607E0,-6.0023074E0,3.3008504E0,1.0841894E0],"split_indices":[0,2,1,4,1,2,0,0,0,0,0,0,0],"split_type":[0,0,0,0,0,0,0,0,0,0,0,0,0],"sum_hessian":[4.3E1,2E1,2.3E1,1.4E1,6E0,2E1,3E0,4E0,1E1,4E0,2E0,1E1,1E1],"tree_param":{"num_deleted":"0","num_feature":"6","num_nodes":"13","size_leaf_vector":"1"}},{"base_weights":[-2.9985154E-1,8.651617E0,-2.4145447E1,-1.5017598E1,1.3591012E1,-6.231328E1,-4.499139E0,-1.9713359E0,1.3241162E0,1.2978466E0,-1.0298584E0,-1.4468482E0,-5.682184E0,2.1993652E-1,-1.1397498E0],"categories":[],"categories_nodes":[],"categories_segments":[],"categories_sizes":[],"default_left":[0,0,0,0,0,0,0,0,0,0,0,0,0,0,0],"id":9,"left_children":[1,3,5,7,9,11,13,-1,-1,-1,-1,-1,-1,-1,-1],"loss_changes":[9.38738E3,3.945276E3,8.717928E3,2.2307983E3,2.0895474E3,2.5703223E2,6.75062E2,0E0,0E0,0E0,0E0,0E0,0E0,0E0,0E0],"parents":[2147483647,0,0,1,1,2,2,3,3,4,4,5,5,6,6],"right_children":[2,4,6,8,10,12,14,-1,-1,-1,-1,-1,-1,-1,-1],"split_conditions":[9.1E0,4.2E-1,9.8E0,8.8E0,3E0,1E0,1.16E1,-1.9713359E0,1.3241162E0,1.2978466E0,-1.0298584E0,-1.4468482E0,-5.682184E0,2.1993652E-1,-1.1397498E0],"split_indices":[2,4,2,2,1,1,2,0,0,0,0,0,0,0,0],"split_type":[0,0,0,0,0,0,0,0,0,0,0,0,0,0,0],"sum_hessian":[4.2E1,3.1E1,1.1E1,5E0,2.6E1,3E0,8E0,4E0,1E0,2.4E1,2E0,1E0,2E0,5E0,3E0],"tree_param":{"num_deleted":"0","num_feature":"6","num_nodes":"15","size_leaf_vector":"1"}},{"base_weights":[1.3449471E0,1.1915753E1,-2.7836847E1,3.2678359E0,4.3569756E1,-5.3646606E1,-1.32728615E1,-5.079228E-1,1.1290283E0,1.3525391E0,4.747226E0,-5.3791337E0,-5.1475585E-1,7.297253E-1,-2.0792267E0],"categories":[],"categories_nodes":[],"categories_segments":[],"categories_sizes":[],"default_left":[0,0,0,0,0,0,0,0,0,0,0,0,0,0,0],"id":10,"left_children":[1,3,5,7,9,11,13,-1,-1,-1,-1,-1,-1,-1,-1],"loss_changes":[1.3904601E4,8.89108E3,3.7986729E3,2.9055718E3,1.9401865E3,2.134291E3,2.8002778E3,0E0,0E0,0E0,0E0,0E0,0E0,0E0,0E0],"parents":[2147483647,0,0,1,1,2,2,3,3,4,4,5,5,6,6],"right_children":[2,4,6,8,10,12,14,-1,-1,-1,-1,-1,-1,-1,-1],"split_conditions":[2E0,8.7E1,6.39E1,7.12E1,5.9E-1,6.9E-1,3E0,-5.079228E-1,1.1290283E0,1.3525391E0,4.747226E0,-5.3791337E0,-5.1475585E-1,7.297253E-1,-2.0792267E0],"split_indices":[1,0,0,0,4,3,1,0,0,0,0,0,0,0,0],"split_type":[0,0,0,0,0,0,0,0,0,0,0,0,0,0,0],"sum_hessian":[4.3E1,3.2E1,1.1E1,2.6E1,6E0,3E0,8E0,1.4E1,1.2E1,3E0,3E0,2E0,1E0,3E0,5E0],"tree_param":{"num_deleted":"0","num_feature":"6","num_nodes":"15","size_leaf_vector":"1"}},{"base_weights":[7.652946E-1,-1.7774887E1,1.8501081E1,1.5104859E0,-3.0280518E1,2.4032324E1,-2.2582715E0,1.4811833E0,-4.0439513E-1,-3.2050858E0,-8.447347E-1,1.5273416E0,5.111357E0],"categories":[],"categories_nodes":[],"categories_segments":[],"categories_sizes":[],"default_left":[0,0,0,0,0,0,0,0,0,0,0,0,0],"id":11,"left_children":[1,3,5,7,9,11,-1,-1,-1,-1,-1,-1,-1],"loss_changes":[1.5454791E4,5.59278E3,6.8817227E3,1.2099961E3,2.2780508E3,3.112621E3,0E0,0E0,0E0,0E0,0E0,0E0,0E0],"parents":[2147483647,0,0,1,1,2,2,3,3,4,4,5,5],"right_children":[2,4,6,8,10,12,-1,-1,-1,-1,-1,-1,-1],"split_conditions":[7.39E1,5.6E0,3E0,5.19E1,6.39E1,9.64E1,-2.2582715E0,1.4811833E0,-4.0439513E-1,-3.2050858E0,-8.447347E-1,1.5273416E0,5.111357E0],"split_indices":[0,2,1,0,0,0,0,0,0,0,0,0,0],"split_type":[0,0,0,0,0,0,0,0,0,0,0,0,0],"sum_hessian":[4.5E1,2.2E1,2.3E1,9E0,1.3E1,2.1E1,2E0,2E0,7E0,8E0,5E0,2E1,1E0],"tree_param":{"num_deleted":"0","num_feature":"6","num_nodes":"13","size_leaf_vector":"1"}},{"base_weights":[1.4312608E0,-1.3796786E1,1.3090095E1,-3.0253084E0,-3.2691731E0,2.0693024E1,-2.298081E1,-5.319932E-1,1.7624487E0,1.2669482E0,4.906904E0,-2.1781127E0,-2.3993652E-1],"categories":[],"categories_nodes":[],"categories_segments":[],"categories_sizes":[],"default_left":[0,0,0,0,0,0,0,0,0,0,0,0,0],"id":12,"left_children":[1,3,5,-1,7,9,11,-1,-1,-1,-1,-1,-1],"loss_changes":[8.169959E3,4.933746E3,7.6059004E3,0E0,1.4294823E3,3.3707822E3,3.4251172E2,0E0,0E0,0E0,0E0,0E0,0E0],"parents":[2147483647,0,0,1,1,2,2,4,4,5,5,6,6],"right_children":[2,4,6,-1,8,10,12,-1,-1,-1,-1,-1,-1],"split_conditions":[7.39E1,3.9E-1,3E0,-3.0253084E0,8.9E-1,9.64E1,9.46E1,-5.319932E-1,1.7624487E0,1.2669482E0,4.906904E0,-2.1781127E0,-2.3993652E-1],"split_indices":[0,4,1,0,4,0,0,0,0,0,0,0,0],"split_type":[0,0,0,0,0,0,0,0,0,0,0,0,0],"sum_hessian":[4.4E1,1.9E1,2.5E1,5E0,1.4E1,2.1E1,4E0,1.3E1,1E0,2E1,1E0,3E0,1E0],"tree_param":{"num_deleted":"0","num_feature":"6","num_nodes":"13","size_leaf_vector":"1"}},{"base_weights":[6.077881E-1,-1.6092558E1,1.4611768E1,1.2272407E0,-2.6845299E1,2.0312048E1,-2.0392715E1,1.3693733E0,-4.6064383E-1,-1.1015782E0,-3.6009815E0,8.2564807E-1,2.9205601E0,-2.0216634E0,-2.3033935E-1],"categories":[],"categories_nodes":[],"categories_segments":[],"categories_sizes":[],"default_left":[0,0,0,0,0,0,0,0,0,0,0,0,0,0,0],"id":13,"left_children":[1,3,5,7,9,11,13,-1,-1,-1,-1,-1,-1,-1,-1],"loss_changes":[1.075935E4,3.9438877E3,5.4026016E3,1.0975231E3,2.4682588E3,3.1830684E3,2.6896753E2,0E0,0E0,0E0,0E0,0E0,0E0,0E0,0E0],"parents":[2147483647,0,0,1,1,2,2,3,3,4,4,5,5,6,6],"right_children":[2,4,6,8,10,12,14,-1,-1,-1,-1,-1,-1,-1,-1],"split_conditions":[7.39E1,5.6E0,3E0,5.19E1,2E0,8E-1,9.46E1,1.3693733E0,-4.6064383E-1,-1.1015782E0,-3.6009815E0,8.2564807E-1,2.9205601E0,-2.0216634E0,-2.3033935E-1],"split_indices":[0,2,1,0,1,3,0,0,0,0,0,0,0,0,0],"split_type":[0,0,0,0,0,0,0,0,0,0,0,0,0,0,0],"sum_hessian":[4.4E1,2E1,2.4E1,8E0,1.2E1,2.1E1,3E0,2E0,6E0,8E0,4E0,1.4E1,7E0,2E0,1E0],"tree_param":{"num_deleted":"0","num_feature":"6","num_nodes":"15","size_leaf_vector":"1"}},{"base_weights":[-9.958541E-1,-7.947499E0,2.8673119E1,1.1263428E0,-2.4676737E1,8.57845E0,4.74438E0,-3.2055256E-1,1.3070695E0,-3.25354E0,-5.954897E-1,1.2823095E0,-3.3719403E-1],"categories":[],"categories_nodes":[],"categories_segments":[],"categories_sizes":[],"default_left":[0,0,0,0,0,0,0,0,0,0,0,0,0],"id":14,"left_children":[1,3,5,7,9,11,-1,-1,-1,-1,-1,-1,-1],"loss_changes":[8.684054E3,5.188942E3,4.4155166E3,1.8614703E3,3.004484E3,6.394564E2,0E0,0E0,0E0,0E0,0E0,0E0,0E0],"parents":[2147483647,0,0,1,1,2,2,3,3,4,4,5,5],"right_children":[2,4,6,8,10,12,-1,-1,-1,-1,-1,-1,-1],"split_conditions":[9.2E-1,8.5E0,5.3E-1,8.7E-1,9.8E0,5E0,4.74438E0,-3.2055256E-1,1.3070695E0,-3.25354E0,-5.954897E-1,1.2823095E0,-3.3719403E-1],"split_indices":[3,2,4,4,2,5,0,0,0,0,0,0,0],"split_type":[0,0,0,0,0,0,0,0,0,0,0,0,0],"sum_hessian":[4E1,3.3E1,7E0,2.2E1,1.1E1,5E0,2E0,1.7E1,5E0,5E0,6E0,3E0,2E0],"tree_param":{"num_deleted":"0","num_feature":"6","num_nodes":"13","size_leaf_vector":"1"}},{"base_weights":[-1.1064065E0,4.404031E0,-3.6926198E0,3.2161157E0,-1.988325E1,-6.962523E-1,8.9617085E-1,-5.19706E-1,-3.8703794E0],"categories":[],"categories_nodes":[],"categories_segments":[],"categories_sizes":[],"default_left":[0,0,0,0,0,0,0,0,0],"id":15,"left_children":[1,-1,3,5,7,-1,-1,-1,-1],"loss_changes":[6.5935522E3,0E0,4.873788E3,3.0483066E3,4.644955E3,0E0,0E0,0E0,0E0],"parents":[2147483647,0,0,2,2,3,3,4,4],"right_children":[2,-1,4,6,8,-1,-1,-1,-1],"split_conditions":[9E-1,4.404031E0,9.1E0,4.9E-1,2E0,-6.962523E-1,8.9617085E-1,-5.19706E-1,-3.8703794E0],"split_indices":[2,0,2,3,1,0,0,0,0],"split_type":[0,0,0,0,0,0,0,0,0],"sum_hessian":[4.3E1,1E0,4.2E1,3E1,1.2E1,1.2E1,1.8E1,9E0,3E0],"tree_param":{"num_deleted":"0","num_feature":"6","num_nodes":"9","size_leaf_vector":"1"}},{"base_weights":[4.2606202E-1,-1.5365155E1,1.2556765E1,-6.336465E0,-3.1227512E1,1.7504442E1,-1.903157E1,7.046326E-1,-9.013974E-1,-9.080977E-1,-4.3156395E0,1.0796562E0,4.2278686E0,-1.823864E0,-3.0925536E-1],"categories":[],"categories_nodes":[],"categories_segments":[],"categories_sizes":[],"default_left":[0,0,0,0,0,0,0,0,0,0,0,0,0,0,0],"id":16,"left_children":[1,3,5,7,9,11,13,-1,-1,-1,-1,-1,-1,-1,-1],"loss_changes":[8.813071E3,2.6664536E3,4.396648E3,1.1447197E3,2.548498E3,2.545519E3,1.403717E2,0E0,0E0,0E0,0E0,0E0,0E0,0E0,0E0],"parents":[2147483647,0,0,1,1,2,2,3,3,4,4,5,5,6,6],"right_children":[2,4,6,8,10,12,14,-1,-1,-1,-1,-1,-1,-1,-1],"split_conditions":[7.39E1,8E0,3E0,3.5E0,2E0,9.64E1,9.46E1,7.046326E-1,-9.013974E-1,-9.080977E-1,-4.3156395E0,1.0796562E0,4.2278686E0,-1.823864E0,-3.0925536E-1],"split_indices":[0,2,1,2,1,0,0,0,0,0,0,0,0,0,0],"split_type":[0,0,0,0,0,0,0,0,0,0,0,0,0,0,0],"sum_hessian":[4.4E1,1.9E1,2.5E1,1.3E1,6E0,2.2E1,3E0,3E0,1E1,4E0,2E0,2.1E1,1E0,2E0,1E0],"tree_param":{"num_deleted":"0","num_feature":"6","num_nodes":"15","size_leaf_vector":"1"}},{"base_weights":[-7.0216966E-1,6.3250523E0,-2.1139719E1,1.880851E-1,3.0846052E1,-2.4966605E0,-3.936667E1,-1.0216796E0,3.9135432E-1,9.2967385E-1,4.208473E0,6.182886E-1,-4.3911785E-1,-4.0889378E0,-8.467496E-1],"categories":[],"categories_nodes":[],"categories_segments":[],"categories_sizes":[],"default_left":[0,0,0,0,0,0,0,0,0,0,0,0,0,0,0],"id":17,"left_children":[1,3,5,7,9,11,13,-1,-1,-1,-1,-1,-1,-1,-1],"loss_changes":[6.740193E3,5.261158E3,3.9793872E3,1.8302422E3,2.3170244E3,2.5660248E2,1.4873135E3,0E0,0E0,0E0,0E0,0E0,0E0,0E0,0E0],"parents":[2147483647,0,0,1,1,2,2,3,3,4,4,5,5,6,6],"right_children":[2,4,6,8,10,12,14,-1,-1,-1,-1,-1,-1,-1,-1],"split_conditions":[2E0,8.4E-1,6.6E0,4.8E-1,5.3E-1,1E0,6.9E-1,-1.0216796E0,3.9135432E-1,9.2967385E-1,4.208473E0,6.182886E-1,-4.3911785E-1,-4.0889378E0,-8.467496E-1],"split_indices":[1,3,2,4,4,5,3,0,0,0,0,0,0,0,0],"split_type":[0,0,0,0,0,0,0,0,0,0,0,0,0,0,0],"sum_hessian":[4.5E1,3.4E1,1.1E1,2.8E1,6E0,6E0,5E0,7E0,2.1E1,4E0,2E0,1E0,5E0,3E0,2E0],"tree_param":{"num_deleted":"0","num_feature":"6","num_nodes":"15","size_leaf_vector":"1"}},{"base_weights":[8.468303E-3,7.2924E0,-1.7681684E1,3.8911268E-1,2.9679443E1,-2.811537E0,-3.703996E1,-1.0486056E0,3.8955823E-1,2.9369051E0,4.5780435E-1,8.826242E-2,-8.807145E-1,-3.8436022E0,-8.015902E-1],"categories":[],"categories_nodes":[],"categories_segments":[],"categories_sizes":[],"default_left":[0,0,0,0,0,0,0,0,0,0,0,0,0,0,0],"id":18,"left_children":[1,3,5,7,9,11,13,-1,-1,-1,-1,-1,-1,-1,-1],"loss_changes":[6.1850728E3,5.242954E3,3.9259062E3,1.6965189E3,1.1376113E3,3.0096765E2,1.3027412E3,0E0,0E0,0E0,0E0,0E0,0E0,0E0,0E0],"parents":[2147483647,0,0,1,1,2,2,3,3,4,4,5,5,6,6],"right_children":[2,4,6,8,10,12,14,-1,-1,-1,-1,-1,-1,-1,-1],"split_conditions":[2E0,8.7E1,6.6E0,5.17E1,6.9E0,5.6E0,6.9E-1,-1.0486056E0,3.8955823E-1,2.9369051E0,4.5780435E-1,8.826242E-2,-8.807145E-1,-3.8436022E0,-8.015902E-1],"split_indices":[1,0,2,0,2,2,3,0,0,0,0,0,0,0,0],"split_type":[0,0,0,0,0,0,0,0,0,0,0,0,0,0,0],"sum_hessian":[4.6E1,3.3E1,1.3E1,2.6E1,7E0,8E0,5E0,6E0,2E1,5E0,2E0,6E0,2E0,3E0,2E0],"tree_param":{"num_deleted":"0","num_feature":"6","num_nodes":"15","size_leaf_vector":"1"}},{"base_weights":[-1.685572E0,3.8171823E0,-1.7594809E1,-5.5666394E0,1.2012329E1,2.3774414E0,-3.2200336E1,1.22382E0,-7.494726E-1,1.3648427E0,-1.4150959E-1,-4.287565E-1,6.0686034E-1,-3.6624038E0,-1.408995E0],"categories":[],"categories_nodes":[],"categories_segments":[],"categories_sizes":[],"default_left":[0,0,0,0,0,0,0,0,0,0,0,0,0,0,0],"id":19,"left_children":[1,3,5,7,9,11,13,-1,-1,-1,-1,-1,-1,-1,-1],"loss_changes":[4.0942146E3,2.7584314E3,3.5770173E3,1.4917825E3,1.3520139E3,2.8243265E2,5.8039795E2,0E0,0E0,0E0,0E0,0E0,0E0,0E0,0E0],"parents":[2147483647,0,0,1,1,2,2,3,3,4,4,5,5,6,6],"right_children":[2,4,6,8,10,12,14,-1,-1,-1,-1,-1,-1,-1,-1],"split_conditions":[2E0,7.12E1,5.6E0,2.6E0,9.1E0,3.1E0,6.39E1,1.22382E0,-7.494726E-1,1.3648427E0,-1.4150959E-1,-4.287565E-1,6.0686034E-1,-3.6624038E0,-1.408995E0],"split_indices":[1,0,2,2,2,2,0,0,0,0,0,0,0,0,0],"split_type":[0,0,0,0,0,0,0,0,0,0,0,0,0,0,0],"sum_hessian":[4.5E1,3.4E1,1.1E1,1.6E1,1.8E1,5E0,6E0,2E0,1.4E1,1.3E1,5E0,2E0,3E0,2E0,4E0],"tree_param":{"num_deleted":"0","num_feature":"6","num_nodes":"15","size_leaf_vector":"1"}},{"base_weights":[-4.5279065E-1,-4.7309875E0,2.4058733E1,2.4811866E0,-1.5704323E1,3.994748E1,2.155304E0,6.202322E-1,-4.9613425E-1,3.6454465E-2,-2.2659075E0,7.5970703E-1,3.7545931E0,-5.4238766E-1,5.9149086E-1],"categories":[],"categories_nodes":[],"categories_segments":[],"categories_sizes":[],"default_left":[0,0,0,0,0,0,0,0,0,0,0,0,0,0,0],"id":20,"left_children":[1,3,5,7,9,11,13,-1,-1,-1,-1,-1,-1,-1,-1],"loss_changes":[4.9376177E3,3.2046292E3,2.3500276E3,1.1924211E3,3.2758113E3,4.0511084E2,2.3734885E2,0E0,0E0,0E0,0E0,0E0,0E0,0E0,0E0],"parents":[2147483647,0,0,1,1,2,2,3,3,4,4,5,5,6,6],"right_children":[2,4,6,8,10,12,14,-1,-1,-1,-1,-1,-1,-1,-1],"split_conditions":[9.2E-1,1E0,1E0,8.5E0,5.6E0,7.85E1,7.39E1,6.202322E-1,-4.9613425E-1,3.6454465E-2,-2.2659075E0,7.5970703E-1,3.7545931E0,-5.4238766E-1,5.9149086E-1],"split_indices":[3,1,1,2,2,0,0,0,0,0,0,0,0,0,0],"split_type":[0,0,0,0,0,0,0,0,0,0,0,0,0,0,0],"sum_hessian":[4.5E1,3.9E1,6E0,2.4E1,1.5E1,3E0,3E0,1.5E1,9E0,7E0,8E0,1E0,2E0,1E0,2E0],"tree_param":{"num_deleted":"0","num_feature":"6","num_nodes":"15","size_leaf_vector":"1"}},{"base_weights":[-4.8775274E-1,5.4002705E0,-1.663917E1,-2.8021212E0,1.8234882E1,-2.8761704E0,-9.181366E0,-5.2507436E-1,8.437402E-1,9.856628E-1,3.5681615E0,-3.071327E-1,-2.2904491E0],"categories":[],"categories_nodes":[],"categories_segments":[],"categories_sizes":[],"default_left":[0,0,0,0,0,0,0,0,0,0,0,0,0],"id":21,"left_children":[1,3,5,7,9,-1,11,-1,-1,-1,-1,-1,-1],"loss_changes":[4.2742524E3,3.5251553E3,1.3982979E3,1.1236168E3,1.4776597E3,0E0,9.2910175E2,0E0,0E0,0E0,0E0,0E0,0E0],"parents":[2147483647,0,0,1,1,2,2,3,3,4,4,6,6],"right_children":[2,4,6,8,10,-1,12,-1,-1,-1,-1,-1,-1],"split_conditions":[2E0,7.92E1,4.6E-1,7.6E-1,9.64E1,-2.8761704E0,9.2E-1,-5.2507436E-1,8.437402E-1,9.856628E-1,3.5681615E0,-3.071327E-1,-2.2904491E0],"split_indices":[1,0,3,3,0,0,4,0,0,0,0,0,0],"split_type":[0,0,0,0,0,0,0,0,0,0,0,0,0],"sum_hessian":[4.3E1,3.2E1,1.1E1,2E1,1.2E1,2E0,9E0,1.6E1,4E0,1.1E1,1E0,8E0,1E0],"tree_param":{"num_deleted":"0","num_feature":"6","num_nodes":"13","size_leaf_vector":"1"}},{"base_weights":[9.232381E-1,-9.814301E0,1.0727513E1,5.3871284E0,-1.5851532E1,2.0190895E1,-4.1844177E-1,4.2095542E-2,1.3821094E0,-7.21886E-1,-2.325466E0,1.1789718E0,3.4254346E0,4.8571166E-1,-8.5747945E-1],"categories":[],"categories_nodes":[],"categories_segments":[],"categories_sizes":[],"default_left":[0,0,0,0,0,0,0,0,0,0,0,0,0,0,0],"id":22,"left_children":[1,3,5,7,9,11,13,-1,-1,-1,-1,-1,-1,-1,-1],"loss_changes":[4.8426035E3,2.1044343E3,2.5399307E3,3.9545892E2,1.1815984E3,9.7321387E2,8.672242E2,0E0,0E0,0E0,0E0,0E0,0E0,0E0,0E0],"parents":[2147483647,0,0,1,1,2,2,3,3,4,4,5,5,6,6],"right_children":[2,4,6,8,10,12,14,-1,-1,-1,-1,-1,-1,-1,-1],"split_conditions":[7.39E1,4.9E0,7.1E0,8.5E-1,2E0,9.53E1,6.8E-1,4.2095542E-2,1.3821094E0,-7.21886E-1,-2.325466E0,1.1789718E0,3.4254346E0,4.8571166E-1,-8.5747945E-1],"split_indices":[0,2,2,4,1,0,4,0,0,0,0,0,0,0,0],"split_type":[0,0,0,0,0,0,0,0,0,0,0,0,0,0,0],"sum_hessian":[4.4E1,2.1E1,2.3E1,6E0,1.5E1,1.2E1,1.1E1,5E0,1E0,1.1E1,4E0,1.1E1,1E0,7E0,4E0],"tree_param":{"num_deleted":"0","num_feature":"6","num_nodes":"15","size_leaf_vector":"1"}},{"base_weights":[-2.6423314E-1,8.723067E0,-8.866054E0,5.382732E0,3.2884178E0,-2.6228943E1,-1.7374913E-1,-6.3645584E-3,9.556348E-1,-1.0057725E0,-2.9394152E0,2.9556674E-1,-1.0935583E0],"categories":[],"categories_nodes":[],"categories_segments":[],"categories_sizes":[],"default_left":[0,0,0,0,0,0,0,0,0,0,0,0,0],"id":23,"left_children":[1,3,5,7,-1,9,11,-1,-1,-1,-1,-1,-1],"loss_changes":[3.633468E3,2.2665886E3,3.6176074E3,7.8959265E2,0E0,6.867373E2,9.380048E2,0E0,0E0,0E0,0E0,0E0,0E0],"parents":[2147483647,0,0,1,1,2,2,3,3,5,5,6,6],"right_children":[2,4,6,8,-1,10,12,-1,-1,-1,-1,-1,-1],"split_conditions":[7E0,9.89E1,6.39E1,7.74E1,3.2884178E0,1E0,2E0,-6.3645584E-3,9.556348E-1,-1.0057725E0,-2.9394152E0,2.9556674E-1,-1.0935583E0],"split_indices":[2,0,0,0,0,1,1,0,0,0,0,0,0],"split_type":[0,0,0,0,0,0,0,0,0,0,0,0,0],"sum_hessian":[4.5E1,2.2E1,2.3E1,2.1E1,1E0,7E0,1.6E1,1.2E1,9E0,4E0,3E0,1.3E1,3E0],"tree_param":{"num_deleted":"0","num_feature":"6","num_nodes":"13","size_leaf_vector":"1"}},{"base_weights":[1.6304234E-1,-1.7579093E0,3.1568823E0,-1.9000044E1,1.7407436E0,-1.7979418E0,7.3813476E-2,3.5587856E-1,-9.670459E-1],"categories":[],"categories_nodes":[],"categories_segments":[],"categories_sizes":[],"default_left":[0,0,0,0,0,0,0,0,0],"id":24,"left_children":[1,3,-1,5,7,-1,-1,-1,-1],"loss_changes":[3.2399292E3,2.5063684E3,0E0,5.0524878E2,1.3643424E3,0E0,0E0,0E0,0E0],"parents":[2147483647,0,0,1,1,3,3,4,4],"right_children":[2,4,-1,6,8,-1,-1,-1,-1],"split_conditions":[9.89E1,5.17E1,3.1568823E0,5.4E-1,3E0,-1.7979418E0,7.3813476E-2,3.5587856E-1,-9.670459E-1],"split_indices":[0,0,0,3,1,0,0,0,0],"split_type":[0,0,0,0,0,0,0,0,0],"sum_hessian":[4.1E1,4E1,1E0,6E0,3.4E1,5E0,1E0,2.9E1,5E0],"tree_param":{"num_deleted":"0","num_feature":"6","num_nodes":"9","size_leaf_vector":"1"}},{"base_weights":[1.084348E-2,-9.095892E0,7.7161255E0,4.8695273E0,-1.3489811E1,4.9941626E0,3.030608E0,1.1177864E0,-2.5399658E-1,-1.3847139E0,-2.8826255E-1,8.694568E-1,-1.0112417E-1],"categories":[],"categories_nodes":[],"categories_segments":[],"categories_sizes":[],"default_left":[0,0,0,0,0,0,0,0,0,0,0,0,0],"id":25,"left_children":[1,3,5,7,9,11,-1,-1,-1,-1,-1,-1,-1],"loss_changes":[3.368173E3,1.4156732E3,1.9457207E3,4.8372568E2,5.795132E2,9.327643E2,0E0,0E0,0E0,0E0,0E0,0E0,0E0],"parents":[2147483647,0,0,1,1,2,2,3,3,4,4,5,5],"right_children":[2,4,6,8,10,12,-1,-1,-1,-1,-1,-1,-1],"split_conditions":[7.39E1,4.9E0,9.89E1,5.19E1,6.39E1,7.1E0,3.030608E0,1.1177864E0,-2.5399658E-1,-1.3847139E0,-2.8826255E-1,8.694568E-1,-1.0112417E-1],"split_indices":[0,2,0,0,0,2,0,0,0,0,0,0,0],"split_type":[0,0,0,0,0,0,0,0,0,0,0,0,0],"sum_hessian":[4.6E1,2.1E1,2.5E1,5E0,1.6E1,2.4E1,1E0,2E0,3E0,1.1E1,5E0,1.2E1,1.2E1],"tree_param":{"num_deleted":"0","num_feature":"6","num_nodes":"13","size_leaf_vector":"1"}},{"base_weights":[1.5173075E-1,5.15753E0,-1.2952031E1,7.101985E-1,2.2210066E1,-2.8365412E0,-2.8569508E1,1.1005529E0,-1.1245469E-1,2.2534375E0,3.901497E-1,4.421826E-1,-3.6583436E-1,-2.7800746E0,-1.0291927E0],"categories":[],"categories_nodes":[],"categories_segments":[],"categories_sizes":[],"default_left":[0,0,0,0,0,0,0,0,0,0,0,0,0,0,0],"id":26,"left_children":[1,3,5,7,9,11,13,-1,-1,-1,-1,-1,-1,-1,-1],"loss_changes":[3.0841611E3,2.5627283E3,1.9726807E3,7.9228656E2,5.8551465E2,1.5598148E2,3.8316895E1,0E0,0E0,0E0,0E0,0E0,0E0,0E0,0E0],"parents":[2147483647,0,0,1,1,2,2,3,3,4,4,5,5,6,6],"right_children":[2,4,6,8,10,12,14,-1,-1,-1,-1,-1,-1,-1,-1],"split_conditions":[2E0,8.7E1,6.6E0,2.9E0,1E0,1E0,6.39E1,1.1005529E0,-1.1245469E-1,2.2534375E0,3.901497E-1,4.421826E-1,-3.6583436E-1,-2.7800746E0,-1.0291927E0],"split_indices":[1,0,2,2,1,5,0,0,0,0,0,0,0,0,0],"split_type":[0,0,0,0,0,0,0,0,0,0,0,0,0,0,0],"sum_hessian":[4.5E1,3.3E1,1.2E1,2.7E1,6E0,8E0,4E0,3E0,2.4E1,4E0,2E0,1E0,7E0,2E0,2E0],"tree_param":{"num_deleted":"0","num_feature":"6","num_nodes":"15","size_leaf_vector":"1"}},{"base_weights":[-9.945956E-1,-2.6568234E0,2.819248E0,1.4260411E0,-1.2188514E1,-1.0389148E0,2.747229E-1,-1.4652893E-1,-1.9173039E0],"categories":[],"categories_nodes":[],"categories_segments":[],"categories_sizes":[],"default_left":[0,0,0,0,0,0,0,0,0],"id":27,"left_children":[1,3,-1,5,7,-1,-1,-1,-1],"loss_changes":[2.7437988E3,1.6907953E3,0E0,9.417415E2,1.5418607E3,0E0,0E0,0E0,0E0],"parents":[2147483647,0,0,1,1,3,3,4,4],"right_children":[2,4,-1,6,8,-1,-1,-1,-1],"split_conditions":[9.89E1,2E0,2.819248E0,5.04E1,6.5E0,-1.0389148E0,2.747229E-1,-1.4652893E-1,-1.9173039E0],"split_indices":[0,1,0,0,2,0,0,0,0],"split_type":[0,0,0,0,0,0,0,0,0],"sum_hessian":[4.3E1,4.2E1,1E0,3E1,1.2E1,3E0,2.7E1,7E0,5E0],"tree_param":{"num_deleted":"0","num_feature":"6","num_nodes":"9","size_leaf_vector":"1"}},{"base_weights":[9.5439726E-1,5.787113E0,-1.1386682E1,1.6211548E0,1.8603088E1,-2.2131608E0,-5.9121203E0,-5.3215677E-1,3.5485497E-1,4.1283935E-1,2.0509238E0,-1.790122E-1,-1.7062719E0],"categories":[],"categories_nodes":[],"categories_segments":[],"categories_sizes":[],"default_left":[0,0,0,0,0,0,0,0,0,0,0,0,0],"id":28,"left_children":[1,3,5,7,9,-1,11,-1,-1,-1,-1,-1,-1],"loss_changes":[2.7497378E3,1.7317385E3,9.9492566E2,6.3491473E2,6.240864E2,0E0,5.753873E2,0E0,0E0,0E0,0E0,0E0,0E0],"parents":[2147483647,0,0,1,1,2,2,3,3,4,4,6,6],"right_children":[2,4,6,8,10,-1,12,-1,-1,-1,-1,-1,-1],"split_conditions":[2E0,8.7E1,4.6E-1,4E-1,5.9E-1,-2.2131608E0,9.2E-1,-5.3215677E-1,3.5485497E-1,4.1283935E-1,2.0509238E0,-1.790122E-1,-1.7062719E0],"split_indices":[1,0,3,3,4,0,4,0,0,0,0,0,0],"split_type":[0,0,0,0,0,0,0,0,0,0,0,0,0],"sum_hessian":[4.4E1,3.2E1,1.2E1,2.5E1,7E0,2E0,1E1,6E0,1.9E1,3E0,4E0,9E0,1E0],"tree_param":{"num_deleted":"0","num_feature":"6","num_nodes":"13","size_leaf_vector":"1"}},{"base_weights":[3.978205E-1,5.0869803E0,-1.1896738E1,2.3352406E1,1.873177E0,-2.5392975E1,-5.3085694E0,3.0246583E-1,2.1840074E0,-7.1531844E-1,4.9697688E-1,-4.25332E-1,-2.4250293E0,-1.4542724E-1,-1.0278125E0],"categories":[],"categories_nodes":[],"categories_segments":[],"categories_sizes":[],"default_left":[0,0,0,0,0,0,0,0,0,0,0,0,0,0,0],"id":29,"left_children":[1,3,5,7,9,11,13,-1,-1,-1,-1,-1,-1,-1,-1],"loss_changes":[2.7124714E3,1.9521072E3,1.02110095E3,2.8309595E2,1.4633014E3,2.3393042E2,2.3981409E2,0E0,0E0,0E0,0E0,0E0,0E0,0E0,0E0],"parents":[2147483647,0,0,1,1,2,2,3,3,4,4,5,5,6,6],"right_children":[2,4,6,8,10,12,14,-1,-1,-1,-1,-1,-1,-1,-1],"split_conditions":[2E0,2.9E0,6.39E1,4.64E1,5.94E1,1.5E0,4E0,3.0246583E-1,2.1840074E0,-7.1531844E-1,4.9697688E-1,-4.25332E-1,-2.4250293E0,-1.4542724E-1,-1.0278125E0],"split_indices":[1,2,0,0,0,2,1,0,0,0,0,0,0,0,0],"split_type":[0,0,0,0,0,0,0,0,0,0,0,0,0,0,0],"sum_hessian":[4.5E1,3.3E1,1.2E1,4E0,2.9E1,3E0,9E0,1E0,3E0,8E0,2.1E1,1E0,2E0,7E0,2E0],"tree_param":{"num_deleted":"0","num_feature":"6","num_nodes":"15","size_leaf_vector":"1"}},{"base_weights":[9.897632E-3,7.526004E0,-6.8530645E0,4.730954E0,2.53708E0,-1.9103287E1,-2.9963684E-1,4.865519E-2,7.761849E-1,-7.032617E-1,-2.1774487E0,1.2137142E-1,-1.1020532E0],"categories":[],"categories_nodes":[],"categories_segments":[],"categories_sizes":[],"default_left":[0,0,0,0,0,0,0,0,0,0,0,0,0],"id":30,"left_children":[1,3,5,7,-1,9,11,-1,-1,-1,-1,-1,-1],"loss_changes":[2.2696345E3,1.2696754E3,1.8407378E3,4.0401382E2,0E0,4.3020532E2,4.126272E2,0E0,0E0,0E0,0E0,0E0,0E0],"parents":[2147483647,0,0,1,1,2,2,3,3,5,5,6,6],"right_children":[2,4,6,8,-1,10,12,-1,-1,-1,-1,-1,-1],"split_conditions":[7E0,9.89E1,6.39E1,7.74E1,2.53708E0,1E0,4E0,4.865519E-2,7.761849E-1,-7.032617E-1,-2.1774487E0,1.2137142E-1,-1.1020532E0],"split_indices":[2,0,0,0,0,1,1,0,0,0,0,0,0],"split_type":[0,0,0,0,0,0,0,0,0,0,0,0,0],"sum_hessian":[4.2E1,2E1,2.2E1,1.9E1,1E0,7E0,1.5E1,1.1E1,8E0,4E0,3E0,1.4E1,1E0],"tree_param":{"num_deleted":"0","num_feature":"6","num_nodes":"13","size_leaf_vector":"1"}},{"base_weights":[1.1114516E0,-3.118446E-1,2.4355958E0,1.5233843E0,-1.8127365E1,-1.7677572E-1,4.455394E-1,-1.6745946E0,-3.8848633E-1],"categories":[],"categories_nodes":[],"categories_segments":[],"categories_sizes":[],"default_left":[0,0,0,0,0,0,0,0,0],"id":31,"left_children":[1,3,-1,5,7,-1,-1,-1,-1],"loss_changes":[1.8047549E3,1.4008285E3,0E0,6.013435E2,4.7257812E1,0E0,0E0,0E0,0E0],"parents":[2147483647,0,0,1,1,3,3,4,4],"right_children":[2,4,-1,6,8,-1,-1,-1,-1],"split_conditions":[9.89E1,4E0,2.4355958E0,7.8E1,9.46E1,-1.7677572E-1,4.455394E-1,-1.6745946E0,-3.8848633E-1],"split_indices":[0,1,0,0,0,0,0,0,0],"split_type":[0,0,0,0,0,0,0,0,0],"sum_hessian":[4.2E1,4.1E1,1E0,3.8E1,3E0,2E1,1.8E1,2E0,1E0],"tree_param":{"num_deleted":"0","num_feature":"6","num_nodes":"9","size_leaf_vector":"1"}},{"base_weights":[-5.611221E-1,6.447213E0,-7.891818E0,3.8468597E0,2.3381712E0,-1.7593231E1,-1.3146551E0,5.5015314E-1,-2.2102399E-1,-6.4694136E-1,-2.0062401E0,2.4345092E-1,-5.524748E-1],"categories":[],"categories_nodes":[],"categories_segments":[],"categories_sizes":[],"default_left":[0,0,0,0,0,0,0,0,0,0,0,0,0],"id":32,"left_children":[1,3,5,7,-1,9,11,-1,-1,-1,-1,-1,-1],"loss_changes":[2.1059194E3,1.1315205E3,1.2530264E3,4.1955206E2,0E0,3.664297E2,3.377689E2,0E0,0E0,0E0,0E0,0E0,0E0],"parents":[2147483647,0,0,1,1,2,2,3,3,5,5,6,6],"right_children":[2,4,6,8,-1,10,12,-1,-1,-1,-1,-1,-1],"split_conditions":[7E0,9.89E1,6.39E1,2E0,2.3381712E0,1E0,1.07E1,5.5015314E-1,-2.2102399E-1,-6.4694136E-1,-2.0062401E0,2.4345092E-1,-5.524748E-1],"split_indices":[2,0,0,1,0,1,2,0,0,0,0,0,0],"split_type":[0,0,0,0,0,0,0,0,0,0,0,0,0],"sum_hessian":[3.9E1,2E1,1.9E1,1.9E1,1E0,7E0,1.2E1,1.3E1,6E0,4E0,3E0,7E0,5E0],"tree_param":{"num_deleted":"0","num_feature":"6","num_nodes":"13","size_leaf_vector":"1"}},{"base_weights":[-7.283755E-1,-1.4673757E1,1.435744E0,-4.6805176E-1,-1.762265E1,5.459365E0,-3.0869815E0,-1.6433642E0,-3.5457763E-1,1.99083E-1,8.836412E-1,7.26914E-2,-5.419126E-1],"categories":[],"categories_nodes":[],"categories_segments":[],"categories_sizes":[],"default_left":[0,0,0,0,0,0,0,0,0,0,0,0,0],"id":33,"left_children":[1,3,5,-1,7,9,11,-1,-1,-1,-1,-1,-1],"loss_changes":[1.3489646E3,5.300647E1,7.265646E2,0E0,6.298584E1,3.2101807E2,2.8605487E2,0E0,0E0,0E0,0E0,0E0,0E0],"parents":[2147483647,0,0,1,1,2,2,4,4,5,5,6,6],"right_children":[2,4,6,-1,8,10,12,-1,-1,-1,-1,-1,-1],"split_conditions":[3.9E-1,1E0,7.1E0,-4.6805176E-1,5.17E1,5.6E0,6.1E-1,-1.6433642E0,-3.5457763E-1,1.99083E-1,8.836412E-1,7.26914E-2,-5.419126E-1],"split_indices":[4,1,2,0,0,2,4,0,0,0,0,0,0],"split_type":[0,0,0,0,0,0,0,0,0,0,0,0,0],"sum_hessian":[4.3E1,5E0,3.8E1,2E0,3E0,2E1,1.8E1,2E0,1E0,1.4E1,6E0,9E0,9E0],"tree_param":{"num_deleted":"0","num_feature":"6","num_nodes":"13","size_leaf_vector":"1"}},{"base_weights":[7.786787E-2,-3.7979035E0,9.484894E0,-1.499104E1,-1.8057841E0,2.2156005E0,4.1419578E0,-1.5557177E0,-4.4308758E-1,5.2764094E-3,-5.569049E-1,-3.1642497E-1,8.392613E-1],"categories":[],"categories_nodes":[],"categories_segments":[],"categories_sizes":[],"default_left":[0,0,0,0,0,0,0,0,0,0,0,0,0],"id":34,"left_children":[1,3,5,7,9,-1,11,-1,-1,-1,-1,-1,-1],"loss_changes":[1.7496184E3,7.310637E2,1.2474252E3,1.0286743E2,2.899532E2,0E0,6.583904E2,0E0,0E0,0E0,0E0,0E0,0E0],"parents":[2147483647,0,0,1,1,2,2,3,3,4,4,6,6],"right_children":[2,4,6,8,10,-1,12,-1,-1,-1,-1,-1,-1],"split_conditions":[7.7E-1,3.9E-1,2.6E0,3.7E-1,9E0,2.2156005E0,7.8E1,-1.5557177E0,-4.4308758E-1,5.2764094E-3,-5.569049E-1,-3.1642497E-1,8.392613E-1],"split_indices":[3,4,2,3,2,0,0,0,0,0,0,0,0],"split_type":[0,0,0,0,0,0,0,0,0,0,0,0,0],"sum_hessian":[4.6E1,3.3E1,1.3E1,4E0,2.9E1,2E0,1.1E1,2E0,2E0,2.2E1,7E0,5E0,6E0],"tree_param":{"num_deleted":"0","num_feature":"6","num_nodes":"13","size_leaf_vector":"1"}},{"base_weights":[-1.9692924E0,1.4060802E0,-1.0126418E1,-1.6576326E0,8.312012E0,-3.5045624E0,-1.7267822E1,-5.4964256E-1,1.7474155E-1,1.3215703E0,6.9596353E-3,-5.15374E-1,8.348755E-2,-1.9210669E0,-2.0142904E-1],"categories":[],"categories_nodes":[],"categories_segments":[],"categories_sizes":[],"default_left":[0,0,0,0,0,0,0,0,0,0,0,0,0,0,0],"id":35,"left_children":[1,3,5,7,9,11,13,-1,-1,-1,-1,-1,-1,-1,-1],"loss_changes":[1.2257054E3,6.908275E2,5.5424524E2,4.7563846E2,6.7364075E2,1.13608795E2,5.3651404E2,0E0,0E0,0E0,0E0,0E0,0E0,0E0,0E0],"parents":[2147483647,0,0,1,1,2,2,3,3,4,4,5,5,6,6],"right_children":[2,4,6,8,10,12,14,-1,-1,-1,-1,-1,-1,-1,-1],"split_conditions":[2E0,7.6E-1,6.6E0,5.94E1,1E0,6.9E-1,6.9E-1,-5.4964256E-1,1.7474155E-1,1.3215703E0,6.9596353E-3,-5.15374E-1,8.348755E-2,-1.9210669E0,-2.0142904E-1],"split_indices":[1,3,2,0,1,4,3,0,0,0,0,0,0,0,0],"split_type":[0,0,0,0,0,0,0,0,0,0,0,0,0,0,0],"sum_hessian":[4.3E1,3.1E1,1.2E1,2.2E1,9E0,7E0,5E0,9E0,1.3E1,4E0,5E0,4E0,3E0,3E0,2E0],"tree_param":{"num_deleted":"0","num_feature":"6","num_nodes":"15","size_leaf_vector":"1"}},{"base_weights":[-6.106026E-1,5.3668294E0,-6.3015985E0,3.1281157E0,2.095193E0,-2.6386616E0,-1.6240143E1,4.5705402E-1,-2.2865373E-1,-4.661491E-1,3.9566893E-2,-1.8061262E0,-5.942224E-1],"categories":[],"categories_nodes":[],"categories_segments":[],"categories_sizes":[],"default_left":[0,0,0,0,0,0,0,0,0,0,0,0,0],"id":36,"left_children":[1,3,5,7,-1,9,11,-1,-1,-1,-1,-1,-1],"loss_changes":[1.5305914E3,9.436473E2,7.9444586E2,3.4130237E2,0E0,1.8269156E2,1.6733997E2,0E0,0E0,0E0,0E0,0E0,0E0],"parents":[2147483647,0,0,1,1,2,2,3,3,5,5,6,6],"right_children":[2,4,6,8,-1,10,12,-1,-1,-1,-1,-1,-1],"split_conditions":[7E0,9.89E1,2E0,2E0,2.095193E0,7.12E1,6.39E1,4.5705402E-1,-2.2865373E-1,-4.661491E-1,3.9566893E-2,-1.8061262E0,-5.942224E-1],"split_indices":[2,0,1,1,0,0,0,0,0,0,0,0,0],"split_type":[0,0,0,0,0,0,0,0,0,0,0,0,0],"sum_hessian":[4.3E1,2.1E1,2.2E1,2E1,1E0,1.7E1,5E0,1.4E1,6E0,8E0,9E0,2E0,3E0],"tree_param":{"num_deleted":"0","num_feature":"6","num_nodes":"13","size_leaf_vector":"1"}},{"base_weights":[-7.088251E-1,8.452571E0,-4.349756E0,2.0105455E0,2.0833984E1,-9.387207E0,6.4471436E-1,-1.254419E-1,5.5006105E-1,1.9588915E0,3.951001E-1,-7.339111E-2,-9.1425693E-1,1.9957066E-1,-6.562516E-1],"categories":[],"categories_nodes":[],"categories_segments":[],"categories_sizes":[],"default_left":[0,0,0,0,0,0,0,0,0,0,0,0,0,0,0],"id":37,"left_children":[1,3,5,7,9,11,13,-1,-1,-1,-1,-1,-1,-1,-1],"loss_changes":[1.4043629E3,9.1524884E2,7.6083405E2,1.6747601E2,1.1127673E2,2.4882019E2,2.82349E2,0E0,0E0,0E0,0E0,0E0,0E0,0E0,0E0],"parents":[2147483647,0,0,1,1,2,2,3,3,4,4,5,5,6,6],"right_children":[2,4,6,8,10,12,14,-1,-1,-1,-1,-1,-1,-1,-1],"split_conditions":[5.4E0,7.7E-1,7.39E1,3.1E0,2.6E0,3E0,9.03E1,-1.254419E-1,5.5006105E-1,1.9588915E0,3.951001E-1,-7.339111E-2,-9.1425693E-1,1.9957066E-1,-6.562516E-1],"split_indices":[2,3,0,2,2,5,0,0,0,0,0,0,0,0,0],"split_type":[0,0,0,0,0,0,0,0,0,0,0,0,0,0,0],"sum_hessian":[4E1,1.1E1,2.9E1,8E0,3E0,1.4E1,1.5E1,5E0,3E0,2E0,1E0,3E0,1.1E1,1.3E1,2E0],"tree_param":{"num_deleted":"0","num_feature":"6","num_nodes":"15","size_leaf_vector":"1"}},{"base_weights":[-3.2647434E-1,-2.8587534E0,1.17426605E1,-2.1667917E-1,-9.324146E0,2.2527985E1,7.6586914E-1,-3.0124542E-1,2.880943E-1,-1.4140356E0,-3.186383E-1,5.038696E-1,2.067072E0,2.904476E-1,-1.883317E-1],"categories":[],"categories_nodes":[],"categories_segments":[],"categories_sizes":[],"default_left":[0,0,0,0,0,0,0,0,0,0,0,0,0,0,0],"id":38,"left_children":[1,3,5,7,9,11,13,-1,-1,-1,-1,-1,-1,-1,-1],"loss_changes":[1.4088782E3,6.4709753E2,9.2985254E2,3.929368E2,4.2026166E2,5.2167114E1,5.3236897E1,0E0,0E0,0E0,0E0,0E0,0E0,0E0,0E0],"parents":[2147483647,0,0,1,1,2,2,3,3,4,4,5,5,6,6],"right_children":[2,4,6,8,10,12,14,-1,-1,-1,-1,-1,-1,-1,-1],"split_conditions":[9.2E-1,9E0,1E0,5.8E-1,9.8E0,7.85E1,4E0,-3.0124542E-1,2.880943E-1,-1.4140356E0,-3.186383E-1,5.038696E-1,2.067072E0,2.904476E-1,-1.883317E-1],"split_indices":[3,2,1,3,2,0,5,0,0,0,0,0,0,0,0],"split_type":[0,0,0,0,0,0,0,0,0,0,0,0,0,0,0],"sum_hessian":[4.4E1,3.7E1,7E0,2.7E1,1E1,3E0,4E0,1.4E1,1.3E1,3E0,7E0,1E0,2E0,2E0,2E0],"tree_param":{"num_deleted":"0","num_feature":"6","num_nodes":"15","size_leaf_vector":"1"}},{"base_weights":[-2.737406E-1,2.8043694E0,-8.715732E0,-1.9886428E-1,1.2214333E1,-2.5412076E0,-1.4466721E1,-3.4669167E-1,2.1249816E-1,2.6180053E-1,1.3539941E0,-4.853369E-1,1.2956786E-1,-1.5856225E0,-5.467895E-1],"categories":[],"categories_nodes":[],"categories_segments":[],"categories_sizes":[],"default_left":[0,0,0,0,0,0,0,0,0,0,0,0,0,0,0],"id":39,"left_children":[1,3,5,7,9,11,13,-1,-1,-1,-1,-1,-1,-1,-1],"loss_changes":[1.1677986E3,9.3501953E2,3.8935254E2,3.184458E2,2.815835E2,1.1250821E2,1.0967651E2,0E0,0E0,0E0,0E0,0E0,0E0,0E0,0E0],"parents":[2147483647,0,0,1,1,2,2,3,3,4,4,5,5,6,6],"right_children":[2,4,6,8,10,12,14,-1,-1,-1,-1,-1,-1,-1,-1],"split_conditions":[2E0,8.7E1,6.5E0,5.94E1,5.9E-1,3.1E0,6.39E1,-3.4669167E-1,2.1249816E-1,2.6180053E-1,1.3539941E0,-4.853369E-1,1.2956786E-1,-1.5856225E0,-5.467895E-1],"split_indices":[1,0,2,0,4,2,0,0,0,0,0,0,0,0,0],"split_type":[0,0,0,0,0,0,0,0,0,0,0,0,0,0,0],"sum_hessian":[4.3E1,3.2E1,1.1E1,2.5E1,7E0,6E0,5E0,1E1,1.5E1,3E0,4E0,3E0,3E0,2E0,3E0],"tree_param":{"num_deleted":"0","num_feature":"6","num_nodes":"15","size_leaf_vector":"1"}},{"base_weights":[-2.18886E-1,-2.463026E0,1.0748657E1,-8.210501E0,-4.651001E-1,2.5527039E0,1.8846142E0,-9.296421E-1,-3.2003173E-1,4.43715E-1,-1.5114121E-1,4.3433836E-1,-1.7068522E-1],"categories":[],"categories_nodes":[],"categories_segments":[],"categories_sizes":[],"default_left":[0,0,0,0,0,0,0,0,0,0,0,0,0],"id":40,"left_children":[1,3,5,7,9,11,-1,-1,-1,-1,-1,-1,-1],"loss_changes":[1.1586586E3,4.4401947E2,7.797213E2,9.707892E1,2.6732135E2,9.246466E1,0E0,0E0,0E0,0E0,0E0,0E0,0E0],"parents":[2147483647,0,0,1,1,2,2,3,3,4,4,5,5],"right_children":[2,4,6,8,10,12,-1,-1,-1,-1,-1,-1,-1],"split_conditions":[9.2E-1,4.8E-1,5.3E-1,3.7E-1,5.7E-1,5E0,1.8846142E0,-9.296421E-1,-3.2003173E-1,4.43715E-1,-1.5114121E-1,4.3433836E-1,-1.7068522E-1],"split_indices":[3,4,4,3,4,5,0,0,0,0,0,0,0],"split_type":[0,0,0,0,0,0,0,0,0,0,0,0,0],"sum_hessian":[4.5E1,3.8E1,7E0,9E0,2.9E1,5E0,2E0,4E0,5E0,5E0,2.4E1,3E0,2E0],"tree_param":{"num_deleted":"0","num_feature":"6","num_nodes":"13","size_leaf_vector":"1"}},{"base_weights":[-1.3150038E0,1.1873169E0,-7.7583804E0,-3.7629228E0,3.4067051E0,-1.4838593E1,-1.4784241E0,-3.8930613E-1,2.908447E-1,4.4147927E-1,-4.5774218E-1,-3.6032227E-1,-1.5103893E0,-3.2776934E-1,3.401416E-1],"categories":[],"categories_nodes":[],"categories_segments":[],"categories_sizes":[],"default_left":[0,0,0,0,0,0,0,0,0,0,0,0,0,0,0],"id":41,"left_children":[1,3,5,7,9,11,13,-1,-1,-1,-1,-1,-1,-1,-1],"loss_changes":[7.508878E2,3.863603E2,5.560868E2,1.0749046E2,4.9423306E2,1.6555347E2,1.3746495E2,0E0,0E0,0E0,0E0,0E0,0E0,0E0,0E0],"parents":[2147483647,0,0,1,1,2,2,3,3,4,4,5,5,6,6],"right_children":[2,4,6,8,10,12,14,-1,-1,-1,-1,-1,-1,-1,-1],"split_conditions":[2E0,5.94E1,6.9E-1,6.6E-1,1.07E1,3.1E0,8.41E1,-3.8930613E-1,2.908447E-1,4.4147927E-1,-4.5774218E-1,-3.6032227E-1,-1.5103893E0,-3.2776934E-1,3.401416E-1],"split_indices":[1,0,3,3,2,2,0,0,0,0,0,0,0,0,0],"split_type":[0,0,0,0,0,0,0,0,0,0,0,0,0,0,0],"sum_hessian":[4.5E1,3.3E1,1.2E1,1E1,2.3E1,5E0,7E0,9E0,1E0,1.9E1,4E0,2E0,3E0,5E0,2E0],"tree_param":{"num_deleted":"0","num_feature":"6","num_nodes":"15","size_leaf_vector":"1"}},{"base_weights":[-1.4108601E-1,-2.1616912E0,9.979576E0,-8.523634E0,-3.04842E-1,2.3026326E0,1.7605549E0,-4.3202913E-1,-1.0376041E0,3.9659458E-1,-1.3679068E-1,3.8179076E-1,-1.4063314E-1],"categories":[],"categories_nodes":[],"categories_segments":[],"categories_sizes":[],"default_left":[0,0,0,0,0,0,0,0,0,0,0,0,0],"id":42,"left_children":[1,3,5,7,9,11,-1,-1,-1,-1,-1,-1,-1],"loss_changes":[9.827164E2,4.6992834E2,6.879931E2,5.49433E1,2.4507549E2,6.856071E1,0E0,0E0,0E0,0E0,0E0,0E0,0E0],"parents":[2147483647,0,0,1,1,2,2,3,3,4,4,5,5],"right_children":[2,4,6,8,10,12,-1,-1,-1,-1,-1,-1,-1],"split_conditions":[9.2E-1,4.8E-1,5.3E-1,9.3E0,5.7E-1,5E0,1.7605549E0,-4.3202913E-1,-1.0376041E0,3.9659458E-1,-1.3679068E-1,3.8179076E-1,-1.4063314E-1],"split_indices":[3,4,4,2,4,5,0,0,0,0,0,0,0],"split_type":[0,0,0,0,0,0,0,0,0,0,0,0,0],"sum_hessian":[4.6E1,3.9E1,7E0,8E0,3.1E1,5E0,2E0,6E0,2E0,6E0,2.5E1,3E0,2E0],"tree_param":{"num_deleted":"0","num_feature":"6","num_nodes":"13","size_leaf_vector":"1"}},{"base_weights":[-1.0631431E-1,2.8714786E0,-3.7054155E0,2.0573345E-1,9.941611E-1,-1.1688769E0,-7.4744034E-1,1.5492278E-1,-5.415124E-1,2.1718018E-1,-2.0543678E-1],"categories":[],"categories_nodes":[],"categories_segments":[],"categories_sizes":[],"default_left":[0,0,0,0,0,0,0,0,0,0,0],"id":43,"left_children":[1,3,5,7,-1,-1,9,-1,-1,-1,-1],"loss_changes":[4.5005252E2,5.833137E2,6.0198755E2,2.4247083E2,0E0,0E0,1.078192E2,0E0,0E0,0E0,0E0],"parents":[2147483647,0,0,1,1,2,2,3,3,6,6],"right_children":[2,4,6,8,-1,-1,10,-1,-1,-1,-1],"split_conditions":[1E0,7.6E-1,4.6E-1,1.07E1,9.941611E-1,-1.1688769E0,7.1E-1,1.5492278E-1,-5.415124E-1,2.1718018E-1,-2.0543678E-1],"split_indices":[1,3,3,2,0,0,3,0,0,0,0],"split_type":[0,0,0,0,0,0,0,0,0,0,0],"sum_hessian":[4E1,2.2E1,1.8E1,1.8E1,4E0,3E0,1.5E1,1.5E1,3E0,5E0,1E1],"tree_param":{"num_deleted":"0","num_feature":"6","num_nodes":"11","size_leaf_vector":"1"}},{"base_weights":[3.5237673E-1,2.9493513E0,-6.6665835E0,1.5132129E1,8.8924676E-1,-1.9392471E0,-1.1858602E1,4.149414E-1,1.6026758E0,-3.1717122E-1,2.1999449E-1,-4.2255005E-1,8.981641E-2,-1.3511316E0,-9.586751E-2],"categories":[],"categories_nodes":[],"categories_segments":[],"categories_sizes":[],"default_left":[0,0,0,0,0,0,0,0,0,0,0,0,0,0,0],"id":44,"left_children":[1,3,5,7,9,11,13,-1,-1,-1,-1,-1,-1,-1,-1],"loss_changes":[8.7638104E2,8.649666E2,2.9608063E2,1.39818E2,2.9088058E2,8.780974E1,3.015224E2,0E0,0E0,0E0,0E0,0E0,0E0,0E0,0E0],"parents":[2147483647,0,0,1,1,2,2,3,3,4,4,5,5,6,6],"right_children":[2,4,6,8,10,12,14,-1,-1,-1,-1,-1,-1,-1,-1],"split_conditions":[2E0,2.9E0,6.6E0,5.6E-1,5.87E1,3.1E0,6.9E-1,4.149414E-1,1.6026758E0,-3.1717122E-1,2.1999449E-1,-4.2255005E-1,8.981641E-2,-1.3511316E0,-9.586751E-2],"split_indices":[1,2,2,3,0,2,3,0,0,0,0,0,0,0,0],"split_type":[0,0,0,0,0,0,0,0,0,0,0,0,0,0,0],"sum_hessian":[4.6E1,3.4E1,1.2E1,4E0,3E1,7E0,5E0,2E0,2E0,8E0,2.2E1,3E0,4E0,3E0,2E0],"tree_param":{"num_deleted":"0","num_feature":"6","num_nodes":"15","size_leaf_vector":"1"}},{"base_weights":[-4.835734E-1,-1.3632271E0,1.5288476E0,-3.7676555E-1,-8.906921E-1,-5.4432005E-1,9.1728516E-2],"categories":[],"categories_nodes":[],"categories_segments":[],"categories_sizes":[],"default_left":[0,0,0,0,0,0,0],"id":45,"left_children":[1,3,-1,5,-1,-1,-1],"loss_changes":[8.016759E2,4.1988376E2,0E0,4.0923538E2,0E0,0E0,0E0],"parents":[2147483647,0,0,1,1,3,3],"right_children":[2,4,-1,6,-1,-1,-1],"split_conditions":[9.89E1,4E0,1.5288476E0,3.7E-1,-8.906921E-1,-5.4432005E-1,9.1728516E-2],"split_indices":[0,1,0,3,0,0,0],"split_type":[0,0,0,0,0,0,0],"sum_hessian":[4.4E1,4.3E1,1E0,4E1,3E0,7E0,3.3E1],"tree_param":{"num_deleted":"0","num_feature":"6","num_nodes":"7","size_leaf_vector":"1"}},{"base_weights":[5.108364E-1,8.288391E0,-1.3446591E0,2.760158E0,1.4739844E0,6.609579E-1,-7.8806424E0,-1.5927856E-1,5.4570067E-1,1.6121268E-1,-4.073364E-1,-1.2235497E0,-1.2997721E-1],"categories":[],"categories_nodes":[],"categories_segments":[],"categories_sizes":[],"default_left":[0,0,0,0,0,0,0,0,0,0,0,0,0],"id":46,"left_children":[1,3,5,7,-1,9,11,-1,-1,-1,-1,-1,-1],"loss_changes":[6.749811E2,4.5347266E2,5.0333853E2,1.4864499E2,0E0,2.4396844E2,3.9256885E2,0E0,0E0,0E0,0E0,0E0,0E0],"parents":[2147483647,0,0,1,1,2,2,3,3,5,5,6,6],"right_children":[2,4,6,8,-1,10,12,-1,-1,-1,-1,-1,-1],"split_conditions":[3.5E0,7.7E-1,2E0,1.5E0,1.4739844E0,1.07E1,6.9E-1,-1.5927856E-1,5.4570067E-1,1.6121268E-1,-4.073364E-1,-1.2235497E0,-1.2997721E-1],"split_indices":[2,3,1,2,0,2,3,0,0,0,0,0,0],"split_type":[0,0,0,0,0,0,0,0,0,0,0,0,0],"sum_hessian":[4.5E1,8E0,3.7E1,6E0,2E0,2.9E1,8E0,3E0,3E0,2.4E1,5E0,3E0,5E0],"tree_param":{"num_deleted":"0","num_feature":"6","num_nodes":"13","size_leaf_vector":"1"}},{"base_weights":[5.132329E-1,-1.5263293E0,1.0054993E1,1.0868286E0,-5.1503882E0,2.9903932E0,1.4782128E0,1.8355414E-1,-5.216829E-1,2.4547292E-2,-7.4253327E-1,3.188452E-1,-3.9611816E-2],"categories":[],"categories_nodes":[],"categories_segments":[],"categories_sizes":[],"default_left":[0,0,0,0,0,0,0,0,0,0,0,0,0],"id":47,"left_children":[1,3,5,7,9,11,-1,-1,-1,-1,-1,-1,-1],"loss_changes":[7.743267E2,3.1811548E2,3.6126398E2,1.9870694E2,3.184826E2,1.9317005E1,0E0,0E0,0E0,0E0,0E0,0E0,0E0],"parents":[2147483647,0,0,1,1,2,2,3,3,4,4,5,5],"right_children":[2,4,6,8,10,12,-1,-1,-1,-1,-1,-1,-1],"split_conditions":[8.6E-1,1E0,5.3E-1,1.07E1,5.6E0,9.42E1,1.4782128E0,1.8355414E-1,-5.216829E-1,2.4547292E-2,-7.4253327E-1,3.188452E-1,-3.9611816E-2],"split_indices":[3,1,4,2,2,0,0,0,0,0,0,0,0],"split_type":[0,0,0,0,0,0,0,0,0,0,0,0,0],"sum_hessian":[3.8E1,3.2E1,6E0,1.9E1,1.3E1,4E0,2E0,1.7E1,2E0,6E0,7E0,3E0,1E0],"tree_param":{"num_deleted":"0","num_feature":"6","num_nodes":"13","size_leaf_vector":"1"}},{"base_weights":[4.1775447E-1,1.3496045E0,-3.0664462E-1,1.579877E0,-5.2170362E0,2.2036453E-1,-3.4888425E-1,-6.0818683E-2,-9.756699E-1],"categories":[],"categories_nodes":[],"categories_segments":[],"categories_sizes":[],"default_left":[0,0,0,0,0,0,0,0,0],"id":48,"left_children":[1,-1,3,5,7,-1,-1,-1,-1],"loss_changes":[5.653206E2,0E0,4.3436606E2,2.492882E2,3.9507123E2,0E0,0E0,0E0,0E0],"parents":[2147483647,0,0,2,2,3,3,4,4],"right_children":[2,-1,4,6,8,-1,-1,-1,-1],"split_conditions":[9E-1,1.3496045E0,2E0,1.07E1,6.6E0,2.2036453E-1,-3.4888425E-1,-6.0818683E-2,-9.756699E-1],"split_indices":[2,0,1,2,2,0,0,0,0],"split_type":[0,0,0,0,0,0,0,0,0],"sum_hessian":[4.6E1,1E0,4.5E1,3.3E1,1.2E1,2.8E1,5E0,8E0,4E0],"tree_param":{"num_deleted":"0","num_feature":"6","num_nodes":"9","size_leaf_vector":"1"}},{"base_weights":[1.3658311E-3,1.9346628E0,-4.906339E0,-1.1903E0,4.604926E0,-1.1511612E1,-1.7735962E0,3.0081505E-2,-4.7866088E-1,6.6680664E-1,2.3550431E-1,-2.402124E-1,-1.0677637E0,2.2821045E-1,-3.3310267E-1],"categories":[],"categories_nodes":[],"categories_segments":[],"categories_sizes":[],"default_left":[0,0,0,0,0,0,0,0,0,0,0,0,0,0,0],"id":49,"left_children":[1,3,5,7,9,11,13,-1,-1,-1,-1,-1,-1,-1,-1],"loss_changes":[4.364544E2,2.8084888E2,2.4858713E2,1.223667E2,8.6995605E1,2.239392E1,1.2245323E2,0E0,0E0,0E0,0E0,0E0,0E0,0E0,0E0],"parents":[2147483647,0,0,1,1,2,2,3,3,4,4,5,5,6,6],"right_children":[2,4,6,8,10,12,14,-1,-1,-1,-1,-1,-1,-1,-1],"split_conditions":[9.1E0,5.8E-1,9.8E0,2E0,5.4E0,4.72E1,1.07E1,3.0081505E-2,-4.7866088E-1,6.6680664E-1,2.3550431E-1,-2.402124E-1,-1.0677637E0,2.2821045E-1,-3.3310267E-1],"split_indices":[2,3,2,1,2,0,2,0,0,0,0,0,0,0,0],"split_type":[0,0,0,0,0,0,0,0,0,0,0,0,0,0,0],"sum_hessian":[4.4E1,3.2E1,1.2E1,1.5E1,1.7E1,3E0,9E0,1.2E1,3E0,4E0,1.3E1,1E0,2E0,3E0,6E0],"tree_param":{"num_deleted":"0","num_feature":"6","num_nodes":"15","size_leaf_vector":"1"}},{"base_weights":[3.695546E-1,-3.2720405E-1,1.2689477E0,1.295209E0,-4.8967743E0,-7.294604E-2,3.3212596E-1,-1.668452E-1,-1.010817E0],"categories":[],"categories_nodes":[],"categories_segments":[],"categories_sizes":[],"default_left":[0,0,0,0,0,0,0,0,0],"id":50,"left_children":[1,3,-1,5,7,-1,-1,-1,-1],"loss_changes":[5.0173193E2,3.3996024E2,0E0,2.1812485E2,2.3470087E2,0E0,0E0,0E0,0E0],"parents":[2147483647,0,0,1,1,3,3,4,4],"right_children":[2,4,-1,6,8,-1,-1,-1,-1],"split_conditions":[9.89E1,2E0,1.2689477E0,7.8E1,8.8E0,-7.294604E-2,3.3212596E-1,-1.668452E-1,-1.010817E0],"split_indices":[0,1,0,0,2,0,0,0,0],"split_type":[0,0,0,0,0,0,0,0,0],"sum_hessian":[4.5E1,4.4E1,1E0,3.3E1,1.1E1,1.9E1,1.4E1,9E0,2E0],"tree_param":{"num_deleted":"0","num_feature":"6","num_nodes":"9","size_leaf_vector":"1"}},{"base_weights":[4.5607027E-1,1.2181909E0,-1.9607544E-1,1.4413111E0,-4.4633884E0,-2.1472764E-1,2.2511211E-1,-8.315234E-1,-1.31583E-1],"categories":[],"categories_nodes":[],"categories_segments":[],"categories_sizes":[],"default_left":[0,0,0,0,0,0,0,0,0],"id":51,"left_children":[1,-1,3,5,7,-1,-1,-1,-1],"loss_changes":[4.557391E2,0E0,3.278462E2,2.0007756E2,2.0021393E2,0E0,0E0,0E0,0E0],"parents":[2147483647,0,0,2,2,3,3,4,4],"right_children":[2,-1,4,6,8,-1,-1,-1,-1],"split_conditions":[9E-1,1.2181909E0,9.1E0,4E-1,9.8E0,-2.1472764E-1,2.2511211E-1,-8.315234E-1,-1.31583E-1],"split_indices":[2,0,2,3,2,0,0,0,0],"split_type":[0,0,0,0,0,0,0,0,0],"sum_hessian":[4.6E1,1E0,4.5E1,3.3E1,1.2E1,8E0,2.5E1,3E0,9E0],"tree_param":{"num_deleted":"0","num_feature":"6","num_nodes":"9","size_leaf_vector":"1"}},{"base_weights":[3.5072505E-1,-3.3288138E0,3.695055E0,4.656958E0,-5.4817576E0,1.3905504E0,9.992726E0,-6.43929E-2,6.853207E-1,-5.726058E-1,-9.732015E-2,2.1293396E-1,-4.6818358E-1,1.0956738E0,1.3793781E-1],"categories":[],"categories_nodes":[],"categories_segments":[],"categories_sizes":[],"default_left":[0,0,0,0,0,0,0,0,0,0,0,0,0,0,0],"id":52,"left_children":[1,3,5,7,9,11,13,-1,-1,-1,-1,-1,-1,-1,-1],"loss_changes":[5.414406E2,3.865796E2,3.1990393E2,1.1366252E2,1.1280502E2,1.812949E2,1.6010455E2,0E0,0E0,0E0,0E0,0E0,0E0,0E0,0E0],"parents":[2147483647,0,0,1,1,2,2,3,3,4,4,5,5,6,6],"right_children":[2,4,6,8,10,12,14,-1,-1,-1,-1,-1,-1,-1,-1],"split_conditions":[7.39E1,3.5E0,8.6E-1,1.5E0,6.39E1,1.07E1,1E0,-6.43929E-2,6.853207E-1,-5.726058E-1,-9.732015E-2,2.1293396E-1,-4.6818358E-1,1.0956738E0,1.3793781E-1],"split_indices":[0,2,3,2,0,2,1,0,0,0,0,0,0,0,0],"split_type":[0,0,0,0,0,0,0,0,0,0,0,0,0,0,0],"sum_hessian":[4.2E1,2E1,2.2E1,4E0,1.6E1,1.7E1,5E0,2E0,2E0,1.1E1,5E0,1.5E1,2E0,3E0,2E0],"tree_param":{"num_deleted":"0","num_feature":"6","num_nodes":"15","size_leaf_vector":"1"}},{"base_weights":[8.324169E-1,-1.523649E0,4.66403E0,-6.872055E0,-6.216696E-2,1.6187235E0,9.977305E0,-7.5753355E-1,-8.948405E-2,-6.0471967E-2,6.07998E-1,-5.9363835E-2,3.282536E-1,1.3536295E-1,1.0957544E0],"categories":[],"categories_nodes":[],"categories_segments":[],"categories_sizes":[],"default_left":[0,0,0,0,0,0,0,0,0,0,0,0,0,0,0],"id":53,"left_children":[1,3,5,7,9,11,13,-1,-1,-1,-1,-1,-1,-1,-1],"loss_changes":[4.043178E2,2.1843759E2,2.5891888E2,7.9063324E1,1.2800082E2,7.342727E1,1.6173285E2,0E0,0E0,0E0,0E0,0E0,0E0,0E0,0E0],"parents":[2147483647,0,0,1,1,2,2,3,3,4,4,5,5,6,6],"right_children":[2,4,6,8,10,12,14,-1,-1,-1,-1,-1,-1,-1,-1],"split_conditions":[7.92E1,3.7E-1,4E0,5.4E1,9.3E-1,8.91E1,5.7E-1,-7.5753355E-1,-8.948405E-2,-6.0471967E-2,6.07998E-1,-5.9363835E-2,3.282536E-1,1.3536295E-1,1.0957544E0],"split_indices":[0,3,5,0,4,0,4,0,0,0,0,0,0,0,0],"split_type":[0,0,0,0,0,0,0,0,0,0,0,0,0,0,0],"sum_hessian":[4.3E1,2.7E1,1.6E1,5E0,2.2E1,1.1E1,5E0,3E0,2E0,2.1E1,1E0,6E0,5E0,2E0,3E0],"tree_param":{"num_deleted":"0","num_feature":"6","num_nodes":"15","size_leaf_vector":"1"}},{"base_weights":[-4.6113077E-1,2.793085E-1,-6.496368E-1,-1.2898407E0,4.8187146E0,-3.566424E-1,2.8230645E-2,6.082165E-1,2.2595032E-1],"categories":[],"categories_nodes":[],"categories_segments":[],"categories_sizes":[],"default_left":[0,0,0,0,0,0,0,0,0],"id":54,"left_children":[1,3,-1,5,7,-1,-1,-1,-1],"loss_changes":[2.574752E2,3.053816E2,0E0,1.6811588E2,3.960144E1,0E0,0E0,0E0,0E0],"parents":[2147483647,0,0,1,1,3,3,4,4],"right_children":[2,4,-1,6,8,-1,-1,-1,-1],"split_conditions":[4E0,7.5E-1,-6.496368E-1,5.94E1,3.5E0,-3.566424E-1,2.8230645E-2,6.082165E-1,2.2595032E-1],"split_indices":[1,4,0,0,2,0,0,0,0],"split_type":[0,0,0,0,0,0,0,0,0],"sum_hessian":[4.4E1,4.1E1,3E0,3.1E1,1E1,1E1,2.1E1,3E0,7E0],"tree_param":{"num_deleted":"0","num_feature":"6","num_nodes":"9","size_leaf_vector":"1"}},{"base_weights":[1.06873885E-1,1.09592285E1,-6.3548833E-1,1.0574756E0,2.5763184E-1,9.03183E-1,-4.374103E0,1.5339573E-1,-3.049227E-1,-9.3100585E-2,-7.4223244E-1],"categories":[],"categories_nodes":[],"categories_segments":[],"categories_sizes":[],"default_left":[0,0,0,0,0,0,0,0,0,0,0],"id":55,"left_children":[1,3,5,-1,-1,7,9,-1,-1,-1,-1],"loss_changes":[3.7755786E2,9.882385E0,2.570606E2,0E0,0E0,1.603313E2,1.9386047E2,0E0,0E0,0E0,0E0],"parents":[2147483647,0,0,1,1,2,2,5,5,6,6],"right_children":[2,4,6,-1,-1,8,10,-1,-1,-1,-1],"split_conditions":[1E0,9E-1,2E0,1.0574756E0,2.5763184E-1,1.07E1,6.6E0,1.5339573E-1,-3.049227E-1,-9.3100585E-2,-7.4223244E-1],"split_indices":[2,2,1,0,0,2,2,0,0,0,0],"split_type":[0,0,0,0,0,0,0,0,0,0,0],"sum_hessian":[4.5E1,2E0,4.3E1,1E0,1E0,3.1E1,1.2E1,2.6E1,5E0,8E0,4E0],"tree_param":{"num_deleted":"0","num_feature":"6","num_nodes":"11","size_leaf_vector":"1"}},{"base_weights":[2.8284505E-1,6.1812406E0,-1.1595442E0,2.7651367E-1,1.0849719E1,-4.1267233E0,1.2976743E0,3.2135907E-1,-2.8449056E-1,2.5458008E-1,9.5768183E-1,-4.2179024E-1,7.317993E-2,2.2321431E-1,-3.2291016E-1],"categories":[],"categories_nodes":[],"categories_segments":[],"categories_sizes":[],"default_left":[0,0,0,0,0,0,0,0,0,0,0,0,0,0,0],"id":56,"left_children":[1,3,5,7,9,11,13,-1,-1,-1,-1,-1,-1,-1,-1],"loss_changes":[3.900176E2,2.4509476E2,2.7512244E2,8.59645E1,4.8930054E0,1.0301129E2,1.7844525E2,0E0,0E0,0E0,0E0,0E0,0E0,0E0,0E0],"parents":[2147483647,0,0,1,1,2,2,3,3,4,4,5,5,6,6],"right_children":[2,4,6,8,10,12,14,-1,-1,-1,-1,-1,-1,-1,-1],"split_conditions":[3.5E0,5.8E-1,7.39E1,7.96E1,5.3E-1,9.8E0,1.07E1,3.2135907E-1,-2.8449056E-1,2.5458008E-1,9.5768183E-1,-4.2179024E-1,7.317993E-2,2.2321431E-1,-3.2291016E-1],"split_indices":[2,3,0,0,4,2,2,0,0,0,0,0,0,0,0],"split_type":[0,0,0,0,0,0,0,0,0,0,0,0,0,0,0],"sum_hessian":[4.4E1,8E0,3.6E1,4E0,4E0,1.6E1,2E1,2E0,2E0,1E0,3E0,1.3E1,3E0,1.6E1,4E0],"tree_param":{"num_deleted":"0","num_feature":"6","num_nodes":"15","size_leaf_vector":"1"}},{"base_weights":[1.1346713E-1,1.0094502E1,-6.021656E-1,9.768677E-1,2.3447265E-1,8.1572704E-2,-5.694458E-1,-1.1457711E-1,2.885555E-1],"categories":[],"categories_nodes":[],"categories_segments":[],"categories_sizes":[],"default_left":[0,0,0,0,0,0,0,0,0],"id":57,"left_children":[1,3,5,-1,-1,7,-1,-1,-1],"loss_changes":[3.203598E2,9.692993E0,1.87698E2,0E0,0E0,2.1329565E2,0E0,0E0,0E0],"parents":[2147483647,0,0,1,1,2,2,5,5],"right_children":[2,4,6,-1,-1,8,-1,-1,-1],"split_conditions":[1E0,9E-1,4E0,9.768677E-1,2.3447265E-1,7.5E-1,-5.694458E-1,-1.1457711E-1,2.885555E-1],"split_indices":[2,2,1,0,0,4,0,0,0],"split_type":[0,0,0,0,0,0,0,0,0],"sum_hessian":[4.3E1,2E0,4.1E1,1E0,1E0,3.8E1,3E0,2.7E1,1.1E1],"tree_param":{"num_deleted":"0","num_feature":"6","num_nodes":"9","size_leaf_vector":"1"}},{"base_weights":[-6.1279297E-2,4.3073936E0,-1.6976166E0,8.0134535E0,-7.3424274E-1,2.4871536E-1,-4.9622293E0,8.33125E-1,2.8875855E-1,-3.6115965E-1,3.6406738E-1,1.1002576E-1,-3.9065552E-1,-7.217598E-1,-1.4436768E-1],"categories":[],"categories_nodes":[],"categories_segments":[],"categories_sizes":[],"default_left":[0,0,0,0,0,0,0,0,0,0,0,0,0,0,0],"id":58,"left_children":[1,3,5,7,9,11,13,-1,-1,-1,-1,-1,-1,-1,-1],"loss_changes":[3.1470306E2,2.300991E2,2.0456284E2,3.6416138E1,1.404185E2,1.281305E2,1.3755002E2,0E0,0E0,0E0,0E0,0E0,0E0,0E0,0E0],"parents":[2147483647,0,0,1,1,2,2,3,3,4,4,5,5,6,6],"right_children":[2,4,6,8,10,12,14,-1,-1,-1,-1,-1,-1,-1,-1],"split_conditions":[5.4E0,2E0,1E0,2.6E0,3.1E0,1.07E1,6.9E-1,8.33125E-1,2.8875855E-1,-3.6115965E-1,3.6406738E-1,1.1002576E-1,-3.9065552E-1,-7.217598E-1,-1.4436768E-1],"split_indices":[2,1,1,2,2,2,3,0,0,0,0,0,0,0,0],"split_type":[0,0,0,0,0,0,0,0,0,0,0,0,0,0,0],"sum_hessian":[4.2E1,1.1E1,3.1E1,6E0,5E0,2E1,1.1E1,3E0,3E0,3E0,2E0,1.7E1,3E0,4E0,7E0],"tree_param":{"num_deleted":"0","num_feature":"6","num_nodes":"15","size_leaf_vector":"1"}},{"base_weights":[1.5633625E-1,-9.4071764E-1,5.484932E0,-4.262839E0,1.980133E-1,1.0227051E0,1.0064859E0,-4.9425536E-1,-1.5649901E-1,-3.0799124E-2,4.4586912E-1,-1.3239095E-1,2.2201782E-1],"categories":[],"categories_nodes":[],"categories_segments":[],"categories_sizes":[],"default_left":[0,0,0,0,0,0,0,0,0,0,0,0,0],"id":59,"left_children":[1,3,5,7,9,11,-1,-1,-1,-1,-1,-1,-1],"loss_changes":[2.7406458E2,1.483812E2,2.4045006E2,3.209355E1,9.616095E1,3.2747845E1,0E0,0E0,0E0,0E0,0E0,0E0,0E0],"parents":[2147483647,0,0,1,1,2,2,3,3,4,4,5,5],"right_children":[2,4,6,8,10,12,-1,-1,-1,-1,-1,-1,-1],"split_conditions":[9.2E-1,4.8E-1,5.3E-1,3.7E-1,9.3E-1,7.8E1,1.0064859E0,-4.9425536E-1,-1.5649901E-1,-3.0799124E-2,4.4586912E-1,-1.3239095E-1,2.2201782E-1],"split_indices":[3,4,4,3,4,0,0,0,0,0,0,0,0],"split_type":[0,0,0,0,0,0,0,0,0,0,0,0,0],"sum_hessian":[4.5E1,3.8E1,7E0,9E0,2.9E1,5E0,2E0,4E0,5E0,2.7E1,2E0,2E0,3E0],"tree_param":{"num_deleted":"0","num_feature":"6","num_nodes":"13","size_leaf_vector":"1"}},{"base_weights":[4.0427935E-1,5.1792397E0,-7.080008E-1,9.433838E0,1.4796346E0,-3.803469E0,9.860206E-1,1.9300048E-1,8.77609E-1,-8.21643E-2,3.4629393E-1,-1.7985107E-1,-7.005575E-1,1.6087231E-1,-1.6664621E-1],"categories":[],"categories_nodes":[],"categories_segments":[],"categories_sizes":[],"default_left":[0,0,0,0,0,0,0,0,0,0,0,0,0,0,0],"id":60,"left_children":[1,3,5,7,9,11,13,-1,-1,-1,-1,-1,-1,-1,-1],"loss_changes":[2.532883E2,1.2770439E2,2.0825809E2,1.6681335E1,4.7295715E1,8.8173706E1,8.597102E1,0E0,0E0,0E0,0E0,0E0,0E0,0E0,0E0],"parents":[2147483647,0,0,1,1,2,2,3,3,4,4,5,5,6,6],"right_children":[2,4,6,8,10,12,14,-1,-1,-1,-1,-1,-1,-1,-1],"split_conditions":[3.5E0,1E0,6.39E1,4.64E1,3.1E0,2E0,2E0,1.9300048E-1,8.77609E-1,-8.21643E-2,3.4629393E-1,-1.7985107E-1,-7.005575E-1,1.6087231E-1,-1.6664621E-1],"split_indices":[2,1,0,0,2,1,1,0,0,0,0,0,0,0,0],"split_type":[0,0,0,0,0,0,0,0,0,0,0,0,0,0,0],"sum_hessian":[4.6E1,8E0,3.8E1,3E0,5E0,1.3E1,2.5E1,1E0,2E0,3E0,2E0,1.1E1,2E0,1.9E1,6E0],"tree_param":{"num_deleted":"0","num_feature":"6","num_nodes":"15","size_leaf_vector":"1"}},{"base_weights":[1.7378299E-1,-7.709299E-1,4.9937134E0,-2.0238535E-1,-4.783496E-1,1.0174271E1,-1.494751E-1,-1.3255163E-1,2.469702E-1,9.2511386E-1,2.402124E-1,1.685498E-1,-9.922241E-2],"categories":[],"categories_nodes":[],"categories_segments":[],"categories_sizes":[],"default_left":[0,0,0,0,0,0,0,0,0,0,0,0,0],"id":61,"left_children":[1,3,5,7,-1,9,11,-1,-1,-1,-1,-1,-1],"loss_changes":[2.224154E2,1.202003E2,2.1467747E2,1.8693098E2,0E0,5.1417236E0,1.491929E1,0E0,0E0,0E0,0E0,0E0,0E0],"parents":[2147483647,0,0,1,1,2,2,3,3,5,5,6,6],"right_children":[2,4,6,8,-1,10,12,-1,-1,-1,-1,-1,-1],"split_conditions":[9.2E-1,4E0,1E0,7.5E-1,-4.783496E-1,6.9E0,5.4E0,-1.3255163E-1,2.469702E-1,9.2511386E-1,2.402124E-1,1.685498E-1,-9.922241E-2],"split_indices":[3,1,1,4,0,2,2,0,0,0,0,0,0],"split_type":[0,0,0,0,0,0,0,0,0,0,0,0,0],"sum_hessian":[4.7E1,4E1,7E0,3.7E1,3E0,3E0,4E0,2.6E1,1.1E1,2E0,1E0,1E0,3E0],"tree_param":{"num_deleted":"0","num_feature":"6","num_nodes":"13","size_leaf_vector":"1"}},{"base_weights":[2.5852898E-1,1.6961374E0,-2.9432132E0,6.7857666E0,2.031958E-1,-6.466748E-1,-1.4128901E0,6.9495237E-1,2.5505492E-1,-1.823584E-1,1.3937347E-1,-3.1784302E-1,-9.444715E-3],"categories":[],"categories_nodes":[],"categories_segments":[],"categories_sizes":[],"default_left":[0,0,0,0,0,0,0,0,0,0,0,0,0],"id":62,"left_children":[1,3,5,7,9,-1,11,-1,-1,-1,-1,-1,-1],"loss_changes":[2.0751758E2,2.341753E2,9.8705795E1,2.0181E1,9.949049E1,0E0,3.9310455E1,0E0,0E0,0E0,0E0,0E0,0E0],"parents":[2147483647,0,0,1,1,2,2,3,3,4,4,6,6],"right_children":[2,4,6,8,10,-1,12,-1,-1,-1,-1,-1,-1],"split_conditions":[2E0,5.4E0,4.6E-1,2.6E0,5.7E-1,-6.466748E-1,3.1E0,6.9495237E-1,2.5505492E-1,-1.823584E-1,1.3937347E-1,-3.1784302E-1,-9.444715E-3],"split_indices":[1,2,3,2,3,0,2,0,0,0,0,0,0],"split_type":[0,0,0,0,0,0,0,0,0,0,0,0,0],"sum_hessian":[4.3E1,3E1,1.3E1,6E0,2.4E1,2E0,1.1E1,3E0,3E0,9E0,1.5E1,3E0,8E0],"tree_param":{"num_deleted":"0","num_feature":"6","num_nodes":"13","size_leaf_vector":"1"}},{"base_weights":[-2.0585738E-1,8.886601E-1,-2.8000255E0,-1.0492195E0,3.0256796E0,-6.6373444E0,-9.850952E-1,2.3078124E-1,-1.4128548E-1,3.0876952E-1,-3.45979E-1,-1.1786377E-1,-6.294075E-1,2.1946044E-1,-2.3798828E-1],"categories":[],"categories_nodes":[],"categories_segments":[],"categories_sizes":[],"default_left":[0,0,0,0,0,0,0,0,0,0,0,0,0,0,0],"id":63,"left_children":[1,3,5,7,9,11,13,-1,-1,-1,-1,-1,-1,-1,-1],"loss_changes":[1.2458084E2,1.3155447E2,8.399965E1,5.3035942E1,1.086389E2,1.3820969E1,8.2345955E1,0E0,0E0,0E0,0E0,0E0,0E0,0E0,0E0],"parents":[2147483647,0,0,1,1,2,2,3,3,4,4,5,5,6,6],"right_children":[2,4,6,8,10,12,14,-1,-1,-1,-1,-1,-1,-1,-1],"split_conditions":[9.1E0,7.8E1,9.8E0,5.19E1,3E0,4.72E1,1.07E1,2.3078124E-1,-1.4128548E-1,3.0876952E-1,-3.45979E-1,-1.1786377E-1,-6.294075E-1,2.1946044E-1,-2.3798828E-1],"split_indices":[2,0,2,0,1,0,2,0,0,0,0,0,0,0,0],"split_type":[0,0,0,0,0,0,0,0,0,0,0,0,0,0,0],"sum_hessian":[4.2E1,3E1,1.2E1,1.6E1,1.4E1,3E0,9E0,2E0,1.4E1,1.3E1,1E0,1E0,2E0,3E0,6E0],"tree_param":{"num_deleted":"0","num_feature":"6","num_nodes":"15","size_leaf_vector":"1"}},{"base_weights":[-1.9514266E-1,-1.1475E0,4.4719925E0,-3.157851E0,-1.3705331E-1,9.176666E0,-1.8614502E-1,1.5117187E-2,-4.2185852E-1,5.495544E-2,-4.0374145E-1,2.1267822E-1,8.370589E-1,1.3925293E-1,-8.8240966E-2],"categories":[],"categories_nodes":[],"categories_segments":[],"categories_sizes":[],"default_left":[0,0,0,0,0,0,0,0,0,0,0,0,0,0,0],"id":64,"left_children":[1,3,5,7,9,11,13,-1,-1,-1,-1,-1,-1,-1,-1],"loss_changes":[2.0959152E2,7.878995E1,1.7702834E2,9.303372E1,1.126977E2,5.7281494E0,1.07530985E1,0E0,0E0,0E0,0E0,0E0,0E0,0E0,0E0],"parents":[2147483647,0,0,1,1,2,2,3,3,4,4,5,5,6,6],"right_children":[2,4,6,8,10,12,14,-1,-1,-1,-1,-1,-1,-1,-1],"split_conditions":[9.2E-1,5.94E1,1E0,5.09E1,4E0,7.85E1,5.4E0,1.5117187E-2,-4.2185852E-1,5.495544E-2,-4.0374145E-1,2.1267822E-1,8.370589E-1,1.3925293E-1,-8.8240966E-2],"split_indices":[3,0,1,0,1,0,2,0,0,0,0,0,0,0,0],"split_type":[0,0,0,0,0,0,0,0,0,0,0,0,0,0,0],"sum_hessian":[4.5E1,3.8E1,7E0,1.2E1,2.6E1,3E0,4E0,5E0,7E0,2.3E1,3E0,1E0,2E0,1E0,3E0],"tree_param":{"num_deleted":"0","num_feature":"6","num_nodes":"15","size_leaf_vector":"1"}},{"base_weights":[-4.643065E-1,-2.6576996E0,1.0720544E0,-4.3206706E0,-3.8902283E-2,3.072519E0,-8.620954E-1,-2.1217231E-1,-6.308797E-1,1.3869953E-1,-2.8569824E-1,7.787435E-2,4.9891013E-1,-1.9999023E-1,9.0624996E-2],"categories":[],"categories_nodes":[],"categories_segments":[],"categories_sizes":[],"default_left":[0,0,0,0,0,0,0,0,0,0,0,0,0,0,0],"id":65,"left_children":[1,3,5,7,9,11,13,-1,-1,-1,-1,-1,-1,-1,-1],"loss_changes":[1.4775247E2,7.82216E1,1.0324796E2,4.4521988E1,5.628412E1,8.0265205E1,4.8573048E1,0E0,0E0,0E0,0E0,0E0,0E0,0E0,0E0],"parents":[2147483647,0,0,1,1,2,2,3,3,4,4,5,5,6,6],"right_children":[2,4,6,8,10,12,14,-1,-1,-1,-1,-1,-1,-1,-1],"split_conditions":[5.7E-1,7.5E-1,1E0,9.3E0,9.03E1,7.6E-1,7.39E1,-2.1217231E-1,-6.308797E-1,1.3869953E-1,-2.8569824E-1,7.787435E-2,4.9891013E-1,-1.9999023E-1,9.0624996E-2],"split_indices":[3,4,1,2,0,3,0,0,0,0,0,0,0,0,0],"split_type":[0,0,0,0,0,0,0,0,0,0,0,0,0,0,0],"sum_hessian":[4.2E1,1.7E1,2.5E1,1E1,7E0,1.2E1,1.3E1,8E0,2E0,5E0,2E0,8E0,4E0,7E0,6E0],"tree_param":{"num_deleted":"0","num_feature":"6","num_nodes":"15","size_leaf_vector":"1"}},{"base_weights":[1.8551303E-1,7.1662393E0,-2.946618E-1,1.6143554E-1,6.9851315E-1,8.3639866E-1,-1.9748824E0,1.3206807E-1,-3.4075317E-1,-4.503252E-1,-4.230033E-2],"categories":[],"categories_nodes":[],"categories_segments":[],"categories_sizes":[],"default_left":[0,0,0,0,0,0,0,0,0,0,0],"id":66,"left_children":[1,3,5,-1,-1,7,9,-1,-1,-1,-1],"loss_changes":[1.5630219E2,6.5544434E0,8.527075E1,0E0,0E0,1.1908967E2,9.2143105E1,0E0,0E0,0E0,0E0],"parents":[2147483647,0,0,1,1,2,2,5,5,6,6],"right_children":[2,4,6,-1,-1,8,10,-1,-1,-1,-1],"split_conditions":[1E0,4.64E1,1E0,1.6143554E-1,6.9851315E-1,1.07E1,6.22E1,1.3206807E-1,-3.4075317E-1,-4.503252E-1,-4.230033E-2],"split_indices":[2,0,1,0,0,2,0,0,0,0,0],"split_type":[0,0,0,0,0,0,0,0,0,0,0],"sum_hessian":[4.5E1,2E0,4.3E1,1E0,1E0,2.6E1,1.7E1,2.3E1,3E0,4E0,1.3E1],"tree_param":{"num_deleted":"0","num_feature":"6","num_nodes":"11","size_leaf_vector":"1"}},{"base_weights":[-2.4920884E-1,6.879598E0,-8.054512E-1,1.5497802E-1,6.705737E-1,-2.598914E0,9.3861085E-1,1.955957E-1,-3.2855517E-1,-1.9440003E-2,3.6256346E-1],"categories":[],"categories_nodes":[],"categories_segments":[],"categories_sizes":[],"default_left":[0,0,0,0,0,0,0,0,0,0,0],"id":67,"left_children":[1,3,5,-1,-1,7,9,-1,-1,-1,-1],"loss_changes":[1.6415495E2,6.04068E0,1.21299965E2,0E0,0E0,1.5456041E2,8.602208E1,0E0,0E0,0E0,0E0],"parents":[2147483647,0,0,1,1,2,2,5,5,6,6],"right_children":[2,4,6,-1,-1,8,10,-1,-1,-1,-1],"split_conditions":[1E0,4.64E1,7.74E1,1.5497802E-1,6.705737E-1,3E0,4E0,1.955957E-1,-3.2855517E-1,-1.9440003E-2,3.6256346E-1],"split_indices":[2,0,0,0,0,5,5,0,0,0,0],"split_type":[0,0,0,0,0,0,0,0,0,0,0],"sum_hessian":[3.9E1,2E0,3.7E1,1E0,1E0,1.8E1,1.9E1,4E0,1.4E1,1.5E1,4E0],"tree_param":{"num_deleted":"0","num_feature":"6","num_nodes":"11","size_leaf_vector":"1"}},{"base_weights":[9.989399E-2,-2.5552505E-1,6.4375E-1,9.16788E-1,-1.7667557E0,2.5120584E-2,3.3228636E-1,-4.6239257E-1,-5.748463E-2],"categories":[],"categories_nodes":[],"categories_segments":[],"categories_sizes":[],"default_left":[0,0,0,0,0,0,0,0,0],"id":68,"left_children":[1,3,-1,5,7,-1,-1,-1,-1],"loss_changes":[1.3198355E2,8.134332E1,0E0,4.9423706E1,7.997832E1,0E0,0E0,0E0,0E0],"parents":[2147483647,0,0,1,1,3,3,4,4],"right_children":[2,4,-1,6,8,-1,-1,-1,-1],"split_conditions":[9.89E1,1E0,6.4375E-1,7.6E-1,4.6E-1,2.5120584E-2,3.3228636E-1,-4.6239257E-1,-5.748463E-2],"split_indices":[0,1,0,3,3,0,0,0,0],"split_type":[0,0,0,0,0,0,0,0,0],"sum_hessian":[4.5E1,4.4E1,1E0,2.5E1,1.9E1,2.2E1,3E0,3E0,1.6E1],"tree_param":{"num_deleted":"0","num_feature":"6","num_nodes":"9","size_leaf_vector":"1"}},{"base_weights":[1.6211781E-1,-3.5147781E0,8.9344406E-1,-5.3731565E0,-3.1311035E-1,1.4289303E0,-4.283165E0,-1.3033935E-1,-4.7214597E-1,-7.7083334E-2,6.552734E-2,2.9952392E-2,3.3909667E-1,-3.9263102E-1,-9.6359864E-2],"categories":[],"categories_nodes":[],"categories_segments":[],"categories_sizes":[],"default_left":[0,0,0,0,0,0,0,0,0,0,0,0,0,0,0],"id":69,"left_children":[1,3,5,7,9,11,13,-1,-1,-1,-1,-1,-1,-1,-1],"loss_changes":[1.2952376E2,4.5916893E1,1.1700047E2,2.8094482E-1,3.734908E0,1.0804336E2,1.7817078E0,0E0,0E0,0E0,0E0,0E0,0E0,0E0,0E0],"parents":[2147483647,0,0,1,1,2,2,3,3,4,4,5,5,6,6],"right_children":[2,4,6,8,10,12,14,-1,-1,-1,-1,-1,-1,-1,-1],"split_conditions":[3.7E-1,5.94E1,4E0,4.89E1,7.74E1,7.5E-1,9.46E1,-1.3033935E-1,-4.7214597E-1,-7.7083334E-2,6.552734E-2,2.9952392E-2,3.3909667E-1,-3.9263102E-1,-9.6359864E-2],"split_indices":[3,0,1,0,0,4,0,0,0,0,0,0,0,0,0],"split_type":[0,0,0,0,0,0,0,0,0,0,0,0,0,0,0],"sum_hessian":[4.6E1,7E0,3.9E1,4E0,3E0,3.6E1,3E0,1E0,3E0,2E0,1E0,2.7E1,9E0,2E0,1E0],"tree_param":{"num_deleted":"0","num_feature":"6","num_nodes":"15","size_leaf_vector":"1"}},{"base_weights":[5.389006E-2,6.258423E0,-3.7037104E-1,1.465747E-1,6.0443604E-1,-3.103402E0,5.247381E-1,-3.4340683E-1,1.1988933E-1,8.797962E-2,-3.2502013E-1],"categories":[],"categories_nodes":[],"categories_segments":[],"categories_sizes":[],"default_left":[0,0,0,0,0,0,0,0,0,0,0],"id":70,"left_children":[1,3,5,-1,-1,7,9,-1,-1,-1,-1],"loss_changes":[1.2340567E2,3.3798904E0,1.0926835E2,0E0,0E0,6.663202E1,9.415453E1,0E0,0E0,0E0,0E0],"parents":[2147483647,0,0,1,1,2,2,5,5,6,6],"right_children":[2,4,6,-1,-1,8,10,-1,-1,-1,-1],"split_conditions":[1E0,4.64E1,5.94E1,1.465747E-1,6.0443604E-1,9.5E0,4E0,-3.4340683E-1,1.1988933E-1,8.797962E-2,-3.2502013E-1],"split_indices":[2,0,0,0,0,2,1,0,0,0,0],"split_type":[0,0,0,0,0,0,0,0,0,0,0],"sum_hessian":[4.5E1,2E0,4.3E1,1E0,1E0,1E1,3.3E1,8E0,2E0,3E1,3E0],"tree_param":{"num_deleted":"0","num_feature":"6","num_nodes":"11","size_leaf_vector":"1"}},{"base_weights":[5.3477985E-1,4.720299E0,-3.6045516E-1,6.753082E-1,5.609785E-1,6.0573167E-1,-2.2651014E0,1.8162759E-1,-1.6439208E-1,-3.3528376E-2,2.0704807E-1,-2.9695463E-1,3.3219398E-3],"categories":[],"categories_nodes":[],"categories_segments":[],"categories_sizes":[],"default_left":[0,0,0,0,0,0,0,0,0,0,0,0,0],"id":71,"left_children":[1,3,5,7,-1,9,11,-1,-1,-1,-1,-1,-1],"loss_changes":[1.703175E2,6.943135E1,7.130132E1,2.2084473E1,0E0,5.3906395E1,4.3539017E1,0E0,0E0,0E0,0E0,0E0,0E0],"parents":[2147483647,0,0,1,1,2,2,3,3,5,5,6,6],"right_children":[2,4,6,8,-1,10,12,-1,-1,-1,-1,-1,-1],"split_conditions":[3.5E0,5.8E-1,9.1E0,2E0,5.609785E-1,6.3E-1,6.9E-1,1.8162759E-1,-1.6439208E-1,-3.3528376E-2,2.0704807E-1,-2.9695463E-1,3.3219398E-3],"split_indices":[2,3,2,1,0,4,3,0,0,0,0,0,0],"split_type":[0,0,0,0,0,0,0,0,0,0,0,0,0],"sum_hessian":[4.4E1,7E0,3.7E1,3E0,4E0,2.5E1,1.2E1,2E0,1E0,1.7E1,8E0,7E0,5E0],"tree_param":{"num_deleted":"0","num_feature":"6","num_nodes":"13","size_leaf_vector":"1"}},{"base_weights":[1.8974636E-2,-1.7962906E0,1.3629128E0,-8.3164597E-1,-4.5238953E0,3.4612849E0,-5.465373E-1,-2.1250366E-1,7.061361E-2,-4.1592467E-1,-7.292969E-2,6.0560912E-2,5.192082E-1,-1.2282581E-1,1.3904785E-1],"categories":[],"categories_nodes":[],"categories_segments":[],"categories_sizes":[],"default_left":[0,0,0,0,0,0,0,0,0,0,0,0,0,0,0],"id":72,"left_children":[1,3,5,7,9,11,13,-1,-1,-1,-1,-1,-1,-1,-1],"loss_changes":[1.14669975E2,4.8861107E1,1.10073616E2,5.239306E1,7.454811E0,1.01566666E2,3.6553757E1,0E0,0E0,0E0,0E0,0E0,0E0,0E0,0E0],"parents":[2147483647,0,0,1,1,2,2,3,3,4,4,5,5,6,6],"right_children":[2,4,6,8,10,12,14,-1,-1,-1,-1,-1,-1,-1,-1],"split_conditions":[5.8E-1,2E0,1E0,5.94E1,9.46E1,7.6E-1,8.41E1,-2.1250366E-1,7.061361E-2,-4.1592467E-1,-7.292969E-2,6.0560912E-2,5.192082E-1,-1.2282581E-1,1.3904785E-1],"split_indices":[3,1,1,0,0,3,0,0,0,0,0,0,0,0,0],"split_type":[0,0,0,0,0,0,0,0,0,0,0,0,0,0,0],"sum_hessian":[4.5E1,1.9E1,2.6E1,1.5E1,4E0,1.2E1,1.4E1,7E0,8E0,3E0,1E0,7E0,5E0,1E1,4E0],"tree_param":{"num_deleted":"0","num_feature":"6","num_nodes":"15","size_leaf_vector":"1"}},{"base_weights":[-1.10866725E-1,-1.4869351E0,2.2181778E0,7.5946045E-1,-2.1649272E0,6.643524E0,-3.9730003E-1,1.6953613E-1,-1.4079426E-1,-1.0199192E-1,-4.503058E-1,1.0870361E-1,5.942969E-1,-1.9179198E-1,1.3352132E-1],"categories":[],"categories_nodes":[],"categories_segments":[],"categories_sizes":[],"default_left":[0,0,0,0,0,0,0,0,0,0,0,0,0,0,0],"id":73,"left_children":[1,3,5,7,9,11,13,-1,-1,-1,-1,-1,-1,-1,-1],"loss_changes":[1.3790512E2,4.2766216E1,1.878298E2,2.770966E1,5.756607E1,1.48029175E1,4.9462532E1,0E0,0E0,0E0,0E0,0E0,0E0,0E0,0E0],"parents":[2147483647,0,0,1,1,2,2,3,3,4,4,5,5,6,6],"right_children":[2,4,6,8,10,12,14,-1,-1,-1,-1,-1,-1,-1,-1],"split_conditions":[7E-1,4.9E0,1E0,7.96E1,2E0,5.7E-1,7.39E1,1.6953613E-1,-1.4079426E-1,-1.0199192E-1,-4.503058E-1,1.0870361E-1,5.942969E-1,-1.9179198E-1,1.3352132E-1],"split_indices":[3,2,1,0,1,4,0,0,0,0,0,0,0,0,0],"split_type":[0,0,0,0,0,0,0,0,0,0,0,0,0,0,0],"sum_hessian":[4.1E1,2.6E1,1.5E1,6E0,2E1,5E0,1E1,4E0,2E0,1.7E1,3E0,1E0,4E0,5E0,5E0],"tree_param":{"num_deleted":"0","num_feature":"6","num_nodes":"15","size_leaf_vector":"1"}},{"base_weights":[2.4185587E-1,-3.4983084E-1,3.5038452E0,-2.6513672E0,3.2964203E-1,5.4106444E-1,5.819092E-1,-2.5588518E-1,-3.9262693E-2,2.9491538E-1,-3.661461E-2,-8.998535E-2,1.6212729E-1],"categories":[],"categories_nodes":[],"categories_segments":[],"categories_sizes":[],"default_left":[0,0,0,0,0,0,0,0,0,0,0,0,0],"id":74,"left_children":[1,3,5,7,9,11,-1,-1,-1,-1,-1,-1,-1],"loss_changes":[8.807916E1,6.186343E1,7.425256E1,9.070583E0,8.361687E1,1.4653098E1,0E0,0E0,0E0,0E0,0E0,0E0,0E0],"parents":[2147483647,0,0,1,1,2,2,3,3,4,4,5,5],"right_children":[2,4,6,8,10,12,-1,-1,-1,-1,-1,-1,-1],"split_conditions":[9.2E-1,4.8E-1,5.3E-1,7.25E1,5.7E-1,7.8E1,5.819092E-1,-2.5588518E-1,-3.9262693E-2,2.9491538E-1,-3.661461E-2,-8.998535E-2,1.6212729E-1],"split_indices":[3,4,4,0,4,0,0,0,0,0,0,0,0],"split_type":[0,0,0,0,0,0,0,0,0,0,0,0,0],"sum_hessian":[4.4E1,3.8E1,6E0,8E0,3E1,4E0,2E0,6E0,2E0,5E0,2.5E1,2E0,2E0],"tree_param":{"num_deleted":"0","num_feature":"6","num_nodes":"13","size_leaf_vector":"1"}},{"base_weights":[-1.5130615E-1,6.757394E-1,-2.3663282E0,-8.6979456E-2,3.260788E0,-4.234741E-1,-9.588562E-1,-3.7623573E-2,2.611263E-1,1.0109863E-1,3.9535278E-1,1.6421875E-1,-1.2172472E-1],"categories":[],"categories_nodes":[],"categories_segments":[],"categories_sizes":[],"default_left":[0,0,0,0,0,0,0,0,0,0,0,0,0],"id":75,"left_children":[1,3,5,7,9,-1,11,-1,-1,-1,-1,-1,-1],"loss_changes":[8.7699455E1,6.92919E1,4.8481888E1,3.7501404E1,2.061309E1,0E0,2.006966E1,0E0,0E0,0E0,0E0,0E0,0E0],"parents":[2147483647,0,0,1,1,2,2,3,3,4,4,6,6],"right_children":[2,4,6,8,10,-1,12,-1,-1,-1,-1,-1,-1],"split_conditions":[2E0,8.7E1,6.39E1,9.2E-1,4E0,-4.234741E-1,1E0,-3.7623573E-2,2.611263E-1,1.0109863E-1,3.9535278E-1,1.6421875E-1,-1.2172472E-1],"split_indices":[1,0,0,4,5,0,5,0,0,0,0,0,0],"split_type":[0,0,0,0,0,0,0,0,0,0,0,0,0],"sum_hessian":[4.6E1,3.4E1,1.2E1,2.7E1,7E0,3E0,9E0,2.5E1,2E0,4E0,3E0,1E0,8E0],"tree_param":{"num_deleted":"0","num_feature":"6","num_nodes":"13","size_leaf_vector":"1"}},{"base_weights":[9.715895E-2,-1.4892855E0,1.4812495E0,-7.2428626E-1,-3.7924256E0,2.856605E0,-1.3215637E-1,8.647297E-2,-1.2532227E-1,-3.502191E-1,-5.8046874E-2,5.3524777E-2,4.2377847E-1,-8.064575E-2,1.0365918E-1],"categories":[],"categories_nodes":[],"categories_segments":[],"categories_sizes":[],"default_left":[0,0,0,0,0,0,0,0,0,0,0,0,0,0,0],"id":76,"left_children":[1,3,5,7,9,11,13,-1,-1,-1,-1,-1,-1,-1,-1],"loss_changes":[9.882044E1,3.4253105E1,5.3633675E1,2.7540323E1,5.7988815E0,6.586258E1,1.6314796E1,0E0,0E0,0E0,0E0,0E0,0E0,0E0,0E0],"parents":[2147483647,0,0,1,1,2,2,3,3,4,4,5,5,6,6],"right_children":[2,4,6,8,10,12,14,-1,-1,-1,-1,-1,-1,-1,-1],"split_conditions":[5.8E-1,2E0,1E0,3E0,9.46E1,7.6E-1,8.41E1,8.647297E-2,-1.2532227E-1,-3.502191E-1,-5.8046874E-2,5.3524777E-2,4.2377847E-1,-8.064575E-2,1.0365918E-1],"split_indices":[3,1,1,5,0,3,0,0,0,0,0,0,0,0,0],"split_type":[0,0,0,0,0,0,0,0,0,0,0,0,0,0,0],"sum_hessian":[4.3E1,2E1,2.3E1,1.6E1,4E0,1.2E1,1.1E1,5E0,1.1E1,3E0,1E0,7E0,5E0,7E0,4E0],"tree_param":{"num_deleted":"0","num_feature":"6","num_nodes":"15","size_leaf_vector":"1"}},{"base_weights":[2.3014441E-1,3.8908691E0,-5.897429E-1,7.318573E-1,4.5119238E-1,-1.4885479E0,9.2898995E-1,1.5486816E-1,-1.1520507E-1,-6.060449E-2,-3.8170958E-1,1.5925732E-1,-1.1042089E-1],"categories":[],"categories_nodes":[],"categories_segments":[],"categories_sizes":[],"default_left":[0,0,0,0,0,0,0,0,0,0,0,0,0],"id":77,"left_children":[1,3,5,7,-1,9,11,-1,-1,-1,-1,-1,-1],"loss_changes":[1.3135402E2,4.007419E1,5.052446E1,1.3247675E1,0E0,5.1578884E1,3.7072815E1,0E0,0E0,0E0,0E0,0E0,0E0],"parents":[2147483647,0,0,1,1,2,2,3,3,5,5,6,6],"right_children":[2,4,6,8,-1,10,12,-1,-1,-1,-1,-1,-1],"split_conditions":[3.5E0,5.8E-1,7E-1,7.96E1,4.5119238E-1,2E0,9.9E0,1.5486816E-1,-1.1520507E-1,-6.060449E-2,-3.8170958E-1,1.5925732E-1,-1.1042089E-1],"split_indices":[2,3,3,0,0,1,2,0,0,0,0,0,0],"split_type":[0,0,0,0,0,0,0,0,0,0,0,0,0],"sum_hessian":[4.2E1,7E0,3.5E1,3E0,4E0,2.2E1,1.3E1,2E0,1E0,1.9E1,3E0,9E0,4E0],"tree_param":{"num_deleted":"0","num_feature":"6","num_nodes":"13","size_leaf_vector":"1"}},{"base_weights":[6.6553116E-2,3.7525553E-1,-2.364681E-1,6.1695896E-2,-3.3826141E0,8.853398E-2,-1.05321884E-1,-3.2671386E-1,-5.114746E-2],"categories":[],"categories_nodes":[],"categories_segments":[],"categories_sizes":[],"default_left":[0,0,0,0,0,0,0,0,0],"id":78,"left_children":[1,-1,3,5,7,-1,-1,-1,-1],"loss_changes":[6.836742E1,0E0,4.33598E1,6.3386E1,5.0844955E0,0E0,0E0,0E0,0E0],"parents":[2147483647,0,0,2,2,3,3,4,4],"right_children":[2,-1,4,6,8,-1,-1,-1,-1],"split_conditions":[1E0,3.7525553E-1,6E0,1E0,8.39E1,8.853398E-2,-1.05321884E-1,-3.2671386E-1,-5.114746E-2],"split_indices":[2,0,5,1,0,0,0,0,0],"split_type":[0,0,0,0,0,0,0,0,0],"sum_hessian":[4.7E1,2E0,4.5E1,4.2E1,3E0,2.4E1,1.8E1,2E0,1E0],"tree_param":{"num_deleted":"0","num_feature":"6","num_nodes":"9","size_leaf_vector":"1"}},{"base_weights":[-2.2815011E-1,1.9827365E0,-1.1191931E0,2.2340393E-1,3.9980571E0,-2.175504E0,-4.622919E-1,1.3737793E-1,-2.2709635E-1,4.025742E-1,-4.6901856E-2,-2.4207935E-1,1.1076985E-1,2.799408E-2,-2.040926E-1],"categories":[],"categories_nodes":[],"categories_segments":[],"categories_sizes":[],"default_left":[0,0,0,0,0,0,0,0,0,0,0,0,0,0,0],"id":79,"left_children":[1,3,5,7,9,11,13,-1,-1,-1,-1,-1,-1,-1,-1],"loss_changes":[8.889884E1,4.519987E1,2.1198822E1,4.146861E1,3.139473E1,4.0524E1,3.6521614E1,0E0,0E0,0E0,0E0,0E0,0E0,0E0,0E0],"parents":[2147483647,0,0,1,1,2,2,3,3,4,4,5,5,6,6],"right_children":[2,4,6,8,10,12,14,-1,-1,-1,-1,-1,-1,-1,-1],"split_conditions":[5.4E0,6.9E-1,6.39E1,5.6E-1,3E0,9.8E0,1.07E1,1.3737793E-1,-2.2709635E-1,4.025742E-1,-4.6901856E-2,-2.4207935E-1,1.1076985E-1,2.799408E-2,-2.040926E-1],"split_indices":[2,4,0,4,1,2,2,0,0,0,0,0,0,0,0],"split_type":[0,0,0,0,0,0,0,0,0,0,0,0,0,0,0],"sum_hessian":[4.3E1,1.2E1,3.1E1,7E0,5E0,1.1E1,2E1,5E0,2E0,4E0,1E0,9E0,2E0,1.5E1,5E0],"tree_param":{"num_deleted":"0","num_feature":"6","num_nodes":"15","size_leaf_vector":"1"}},{"base_weights":[6.347018E-2,-1.7792256E-1,4.080786E-1,8.139742E-2,-2.6618118E0,-5.7545166E-2,1.5543538E-1,-2.539087E-1,-4.5026854E-2],"categories":[],"categories_nodes":[],"categories_segments":[],"categories_sizes":[],"default_left":[0,0,0,0,0,0,0,0,0],"id":80,"left_children":[1,3,-1,5,7,-1,-1,-1,-1],"loss_changes":[5.3196392E1,2.7269794E1,0E0,5.9529476E1,2.5127354E0,0E0,0E0,0E0,0E0],"parents":[2147483647,0,0,1,1,3,3,4,4],"right_children":[2,4,-1,6,8,-1,-1,-1,-1],"split_conditions":[9.89E1,4E0,4.080786E-1,7.5E-1,9.46E1,-5.7545166E-2,1.5543538E-1,-2.539087E-1,-4.5026854E-2],"split_indices":[0,1,0,4,0,0,0,0,0],"split_type":[0,0,0,0,0,0,0,0,0],"sum_hessian":[4.2E1,4.1E1,1E0,3.8E1,3E0,2.7E1,1.1E1,2E0,1E0],"tree_param":{"num_deleted":"0","num_feature":"6","num_nodes":"9","size_leaf_vector":"1"}},{"base_weights":[-1.8535359E-1,-2.1117506E0,6.555969E-1,6.8748474E-1,-3.0202699E0,1.0497392E0,-3.2415974E0,-8.178385E-2,2.3267333E-1,-1.7041686E-1,-3.5096025E-1,5.8070563E-2,3.9175537E-1,-3.5035643E-1,-3.8635254E-2],"categories":[],"categories_nodes":[],"categories_segments":[],"categories_sizes":[],"default_left":[0,0,0,0,0,0,0,0,0,0,0,0,0,0,0],"id":81,"left_children":[1,3,5,7,9,11,13,-1,-1,-1,-1,-1,-1,-1,-1],"loss_changes":[6.942466E1,3.5137447E1,4.9484314E1,1.8162516E1,2.8194962E0,3.1331839E1,7.3018627E0,0E0,0E0,0E0,0E0,0E0,0E0,0E0,0E0],"parents":[2147483647,0,0,1,1,2,2,3,3,4,4,5,5,6,6],"right_children":[2,4,6,8,10,12,14,-1,-1,-1,-1,-1,-1,-1,-1],"split_conditions":[6.22E1,3E0,6E0,6.6E-1,2E0,9.64E1,8.39E1,-8.178385E-2,2.3267333E-1,-1.7041686E-1,-3.5096025E-1,5.8070563E-2,3.9175537E-1,-3.5035643E-1,-3.8635254E-2],"split_indices":[0,5,5,3,1,0,0,0,0,0,0,0,0,0,0],"split_type":[0,0,0,0,0,0,0,0,0,0,0,0,0,0,0],"sum_hessian":[4.1E1,1.2E1,2.9E1,3E0,9E0,2.7E1,2E0,2E0,1E0,7E0,2E0,2.6E1,1E0,1E0,1E0],"tree_param":{"num_deleted":"0","num_feature":"6","num_nodes":"15","size_leaf_vector":"1"}},{"base_weights":[2.813897E-1,-8.211273E-1,1.118657E0,-2.018107E-1,-2.2325642E0,2.8624573E0,-3.5096028E-1,-1.0281799E-1,7.2546385E-2,-7.978906E-2,-3.3634275E-1,4.3853354E-2,3.5497698E-1,-2.1280923E-1,1.671349E-2],"categories":[],"categories_nodes":[],"categories_segments":[],"categories_sizes":[],"default_left":[0,0,0,0,0,0,0,0,0,0,0,0,0,0,0],"id":82,"left_children":[1,3,5,7,9,11,13,-1,-1,-1,-1,-1,-1,-1,-1],"loss_changes":[4.2458126E1,1.7031971E1,6.763531E1,1.9182234E1,1.0419628E1,4.130095E1,1.9948458E1,0E0,0E0,0E0,0E0,0E0,0E0,0E0,0E0],"parents":[2147483647,0,0,1,1,2,2,3,3,4,4,5,5,6,6],"right_children":[2,4,6,8,10,12,14,-1,-1,-1,-1,-1,-1,-1,-1],"split_conditions":[5.8E-1,4.9E-1,1E0,5.94E1,3E0,7E-1,6.22E1,-1.0281799E-1,7.2546385E-2,-7.978906E-2,-3.3634275E-1,4.3853354E-2,3.5497698E-1,-2.1280923E-1,1.671349E-2],"split_indices":[3,3,1,0,5,3,0,0,0,0,0,0,0,0,0],"split_type":[0,0,0,0,0,0,0,0,0,0,0,0,0,0,0],"sum_hessian":[4.4E1,1.9E1,2.5E1,1.4E1,5E0,1.1E1,1.4E1,7E0,7E0,4E0,1E0,5E0,6E0,2E0,1.2E1],"tree_param":{"num_deleted":"0","num_feature":"6","num_nodes":"15","size_leaf_vector":"1"}},{"base_weights":[-1.7270362E-1,-3.7758857E-1,3.6188474E-1,-1.5429852E0,9.2949145E-2,-1.6381815E-1,1.8055664E-1,3.64777E-2,-2.1223633E-1],"categories":[],"categories_nodes":[],"categories_segments":[],"categories_sizes":[],"default_left":[0,0,0,0,0,0,0,0,0],"id":83,"left_children":[1,3,-1,5,7,-1,-1,-1,-1],"loss_changes":[4.5968952E1,2.4819756E1,0E0,2.9555502E1,3.410485E1,0E0,0E0,0E0,0E0],"parents":[2147483647,0,0,1,1,3,3,4,4],"right_children":[2,4,-1,6,8,-1,-1,-1,-1],"split_conditions":[9.89E1,5.94E1,3.6188474E-1,7.7E-1,4E0,-1.6381815E-1,1.8055664E-1,3.64777E-2,-2.1223633E-1],"split_indices":[0,0,0,3,1,0,0,0,0],"split_type":[0,0,0,0,0,0,0,0,0],"sum_hessian":[4.5E1,4.4E1,1E0,1.2E1,3.2E1,1.1E1,1E0,2.9E1,3E0],"tree_param":{"num_deleted":"0","num_feature":"6","num_nodes":"9","size_leaf_vector":"1"}},{"base_weights":[1.7394887E-1,2.310023E0,-5.6338936E-1,4.6895054E-1,4.072937E0,-1.42696E-1,-2.2257779E0,1.0964355E-1,-9.520183E-2,3.5257223E-1,9.6074216E-2,-1.367982E-1,6.177503E-2,-2.8669068E-1,-2.4918212E-2],"categories":[],"categories_nodes":[],"categories_segments":[],"categories_sizes":[],"default_left":[0,0,0,0,0,0,0,0,0,0,0,0,0,0,0],"id":84,"left_children":[1,3,5,7,9,11,13,-1,-1,-1,-1,-1,-1,-1,-1],"loss_changes":[7.375187E1,3.7037827E1,2.4159847E1,1.2101021E1,4.6656036E-1,4.290296E1,1.7079178E1,0E0,0E0,0E0,0E0,0E0,0E0,0E0,0E0],"parents":[2147483647,0,0,1,1,2,2,3,3,4,4,5,5,6,6],"right_children":[2,4,6,8,10,12,14,-1,-1,-1,-1,-1,-1,-1,-1],"split_conditions":[5.4E0,5.8E-1,1.07E1,7.96E1,3.5E0,6.39E1,7.6E-1,1.0964355E-1,-9.520183E-2,3.5257223E-1,9.6074216E-2,-1.367982E-1,6.177503E-2,-2.8669068E-1,-2.4918212E-2],"split_indices":[2,3,2,0,2,0,3,0,0,0,0,0,0,0,0],"split_type":[0,0,0,0,0,0,0,0,0,0,0,0,0,0,0],"sum_hessian":[4.5E1,1.1E1,3.4E1,6E0,5E0,2.8E1,6E0,4E0,2E0,4E0,1E0,1E1,1.8E1,3E0,3E0],"tree_param":{"num_deleted":"0","num_feature":"6","num_nodes":"15","size_leaf_vector":"1"}},{"base_weights":[-1.8653196E-1,3.0126137E-1,-4.7117504E-1,-1.313823E-1,-2.8914063E0,-1.3290615E-1,3.974356E-2,-2.6948974E-1,-3.9301757E-2],"categories":[],"categories_nodes":[],"categories_segments":[],"categories_sizes":[],"default_left":[0,0,0,0,0,0,0,0,0],"id":85,"left_children":[1,-1,3,5,7,-1,-1,-1,-1],"loss_changes":[5.01491E1,0E0,3.3337578E1,3.6385143E1,4.0719986E0,0E0,0E0,0E0,0E0],"parents":[2147483647,0,0,2,2,3,3,4,4],"right_children":[2,-1,4,6,8,-1,-1,-1,-1],"split_conditions":[1E0,3.0126137E-1,1.07E1,5.94E1,8.39E1,-1.3290615E-1,3.974356E-2,-2.6948974E-1,-3.9301757E-2],"split_indices":[2,0,2,0,0,0,0,0,0],"split_type":[0,0,0,0,0,0,0,0,0],"sum_hessian":[4.2E1,2E0,4E1,3.6E1,4E0,1E1,2.6E1,3E0,1E0],"tree_param":{"num_deleted":"0","num_feature":"6","num_nodes":"9","size_leaf_vector":"1"}},{"base_weights":[1.7635967E-1,-2.2107048E0,7.0191956E-1,-2.901118E0,-9.297689E-2,1.2141075E0,-2.7164674E0,-3.282023E-1,-1.0198242E-1,-4.3825682E-2,3.2668456E-2,2.0018606E-1,-4.967285E-2,-2.5332153E-1,-3.665039E-2],"categories":[],"categories_nodes":[],"categories_segments":[],"categories_sizes":[],"default_left":[0,0,0,0,0,0,0,0,0,0,0,0,0,0,0],"id":86,"left_children":[1,3,5,7,9,11,13,-1,-1,-1,-1,-1,-1,-1,-1],"loss_changes":[5.5497185E1,1.142712E1,6.632892E1,6.493576E0,9.077905E-1,7.719864E1,3.6311684E0,0E0,0E0,0E0,0E0,0E0,0E0,0E0,0E0],"parents":[2147483647,0,0,1,1,2,2,3,3,4,4,5,5,6,6],"right_children":[2,4,6,8,10,12,14,-1,-1,-1,-1,-1,-1,-1,-1],"split_conditions":[3.7E-1,5.9E-1,1.07E1,4E0,7E0,1E0,1E0,-3.282023E-1,-1.0198242E-1,-4.3825682E-2,3.2668456E-2,2.0018606E-1,-4.967285E-2,-2.5332153E-1,-3.665039E-2],"split_indices":[3,4,2,5,2,1,1,0,0,0,0,0,0,0,0],"split_type":[0,0,0,0,0,0,0,0,0,0,0,0,0,0,0],"sum_hessian":[4.2E1,7E0,3.5E1,5E0,2E0,3.1E1,4E0,2E0,3E0,1E0,1E0,1.8E1,1.3E1,3E0,1E0],"tree_param":{"num_deleted":"0","num_feature":"6","num_nodes":"15","size_leaf_vector":"1"}},{"base_weights":[1.8971053E-1,-3.9870498E-1,1.7140503E0,1.2581833E-1,-2.119133E0,2.5290527E0,-1.8456421E0,-3.2058105E-2,1.6284098E-1,-6.0634766E-2,-2.227412E-1,-1.1479492E-2,2.5111166E-1,-1.784668E-1,-4.3010253E-2],"categories":[],"categories_nodes":[],"categories_segments":[],"categories_sizes":[],"default_left":[0,0,0,0,0,0,0,0,0,0,0,0,0,0,0],"id":87,"left_children":[1,3,5,7,9,11,13,-1,-1,-1,-1,-1,-1,-1,-1],"loss_changes":[4.1942875E1,3.0948381E1,4.2382782E1,2.796524E1,5.132725E0,1.8378578E1,3.1215286E-1,0E0,0E0,0E0,0E0,0E0,0E0,0E0,0E0],"parents":[2147483647,0,0,1,1,2,2,3,3,4,4,5,5,6,6],"right_children":[2,4,6,8,10,12,14,-1,-1,-1,-1,-1,-1,-1,-1],"split_conditions":[7.5E-1,6.5E-1,4E0,8.19E1,2E0,1E0,9.46E1,-3.2058105E-2,1.6284098E-1,-6.0634766E-2,-2.227412E-1,-1.1479492E-2,2.5111166E-1,-1.784668E-1,-4.3010253E-2],"split_indices":[4,4,1,0,5,5,0,0,0,0,0,0,0,0,0],"split_type":[0,0,0,0,0,0,0,0,0,0,0,0,0,0,0],"sum_hessian":[4.5E1,3.3E1,1.2E1,2.6E1,7E0,1E1,2E0,2.1E1,5E0,3E0,4E0,2E0,8E0,1E0,1E0],"tree_param":{"num_deleted":"0","num_feature":"6","num_nodes":"15","size_leaf_vector":"1"}},{"base_weights":[2.1759033E-2,6.849499E-1,-1.6123846E0,1.0875244E0,-2.404953E0,-2.9688314E-1,-8.934437E-1,-7.830078E-2,1.3352878E-1,5.182861E-2,-2.910807E-1,2.0490967E-1,-1.19604975E-1],"categories":[],"categories_nodes":[],"categories_segments":[],"categories_sizes":[],"default_left":[0,0,0,0,0,0,0,0,0,0,0,0,0],"id":88,"left_children":[1,3,5,7,9,-1,11,-1,-1,-1,-1,-1,-1],"loss_changes":[4.8789356E1,4.242077E1,1.6298908E1,3.6483562E1,1.7420486E1,0E0,2.6692696E1,0E0,0E0,0E0,0E0,0E0,0E0],"parents":[2147483647,0,0,1,1,2,2,3,3,4,4,6,6],"right_children":[2,4,6,8,10,-1,12,-1,-1,-1,-1,-1,-1],"split_conditions":[2E0,1.07E1,5.56E1,3.6E-1,7.12E1,-2.9688314E-1,6.29E1,-7.830078E-2,1.3352878E-1,5.182861E-2,-2.910807E-1,2.0490967E-1,-1.19604975E-1],"split_indices":[1,2,0,3,0,0,0,0,0,0,0,0,0],"split_type":[0,0,0,0,0,0,0,0,0,0,0,0,0],"sum_hessian":[4.3E1,3.1E1,1.2E1,2.8E1,3E0,2E0,1E1,6E0,2.2E1,1E0,2E0,1E0,9E0],"tree_param":{"num_deleted":"0","num_feature":"6","num_nodes":"13","size_leaf_vector":"1"}},{"base_weights":[9.545685E-2,1.9375814E0,-5.9832287E-1,3.4622627E-1,3.4712322E0,7.990664E-2,-1.7353643E0,8.704687E-2,-8.0449216E-2,3.009287E-1,8.077393E-2,5.800103E-2,-2.2744384E-1,-2.309257E-1,-4.00565E-2],"categories":[],"categories_nodes":[],"categories_segments":[],"categories_sizes":[],"default_left":[0,0,0,0,0,0,0,0,0,0,0,0,0,0,0],"id":89,"left_children":[1,3,5,7,9,11,13,-1,-1,-1,-1,-1,-1,-1,-1],"loss_changes":[5.6114532E1,2.8085167E1,2.4816269E1,8.114332E0,4.9067688E-1,4.165919E1,1.5610836E1,0E0,0E0,0E0,0E0,0E0,0E0,0E0,0E0],"parents":[2147483647,0,0,1,1,2,2,3,3,4,4,5,5,6,6],"right_children":[2,4,6,8,10,12,14,-1,-1,-1,-1,-1,-1,-1,-1],"split_conditions":[5.4E0,5.8E-1,1E0,7.96E1,3.5E0,1.07E1,7.9E-1,8.704687E-2,-8.0449216E-2,3.009287E-1,8.077393E-2,5.800103E-2,-2.2744384E-1,-2.309257E-1,-4.00565E-2],"split_indices":[2,3,1,0,2,2,3,0,0,0,0,0,0,0,0],"split_type":[0,0,0,0,0,0,0,0,0,0,0,0,0,0,0],"sum_hessian":[4.2E1,1.1E1,3.1E1,6E0,5E0,2E1,1.1E1,4E0,2E0,4E0,1E0,1.7E1,3E0,5E0,6E0],"tree_param":{"num_deleted":"0","num_feature":"6","num_nodes":"15","size_leaf_vector":"1"}},{"base_weights":[-2.5842963E-2,-1.9852409E0,3.8734195E-1,-2.3853977E0,3.2634277E-2,1.2739532E0,-5.663195E-1,-2.9437256E-1,-9.054102E-2,1.7020708E-1,-2.1379882E-1,-1.1430664E-2,-1.6947876E-1],"categories":[],"categories_nodes":[],"categories_segments":[],"categories_sizes":[],"default_left":[0,0,0,0,0,0,0,0,0,0,0,0,0],"id":90,"left_children":[1,3,5,7,-1,9,11,-1,-1,-1,-1,-1,-1],"loss_changes":[3.7200684E1,8.634216E0,3.2851494E1,7.193199E0,0E0,7.306234E1,1.2184919E1,0E0,0E0,0E0,0E0,0E0,0E0],"parents":[2147483647,0,0,1,1,2,2,3,3,5,5,6,6],"right_children":[2,4,6,8,-1,10,12,-1,-1,-1,-1,-1,-1],"split_conditions":[3.7E-1,7.74E1,1E0,4E0,3.2634277E-2,1.07E1,4E0,-2.9437256E-1,-9.054102E-2,1.7020708E-1,-2.1379882E-1,-1.1430664E-2,-1.6947876E-1],"split_indices":[3,0,1,5,0,2,1,0,0,0,0,0,0],"split_type":[0,0,0,0,0,0,0,0,0,0,0,0,0],"sum_hessian":[4.4E1,7E0,3.7E1,6E0,1E0,1.9E1,1.8E1,2E0,4E0,1.6E1,3E0,1.5E1,3E0],"tree_param":{"num_deleted":"0","num_feature":"6","num_nodes":"13","size_leaf_vector":"1"}},{"base_weights":[-1.6391884E-1,-6.263104E-1,1.5497301E0,8.019816E-1,-9.1000473E-1,-1.04512535E-1,3.6436615E0,-5.1347655E-3,2.0531249E-1,-1.22164495E-1,2.8271483E-2,-8.255371E-2,4.937378E-2,6.0187988E-2,3.485319E-1],"categories":[],"categories_nodes":[],"categories_segments":[],"categories_sizes":[],"default_left":[0,0,0,0,0,0,0,0,0,0,0,0,0,0,0],"id":91,"left_children":[1,3,5,7,9,11,13,-1,-1,-1,-1,-1,-1,-1,-1],"loss_changes":[3.345806E1,1.4101353E1,3.1555643E1,9.334434E0,2.2367943E1,4.6526537E0,4.968151E0,0E0,0E0,0E0,0E0,0E0,0E0,0E0,0E0],"parents":[2147483647,0,0,1,1,2,2,3,3,4,4,5,5,6,6],"right_children":[2,4,6,8,10,12,14,-1,-1,-1,-1,-1,-1,-1,-1],"split_conditions":[8.4E-1,5.09E1,5.3E-1,5.04E1,7.5E-1,7.8E1,7.8E1,-5.1347655E-3,2.0531249E-1,-1.22164495E-1,2.8271483E-2,-8.255371E-2,4.937378E-2,6.0187988E-2,3.485319E-1],"split_indices":[3,0,4,0,4,0,0,0,0,0,0,0,0,0,0],"split_type":[0,0,0,0,0,0,0,0,0,0,0,0,0,0,0],"sum_hessian":[4E1,3.2E1,8E0,5E0,2.7E1,5E0,3E0,4E0,1E0,1.8E1,9E0,2E0,3E0,1E0,2E0],"tree_param":{"num_deleted":"0","num_feature":"6","num_nodes":"15","size_leaf_vector":"1"}},{"base_weights":[-1.24343514E-1,4.4050407E-1,-1.6202418E0,-9.0993655E-1,1.0084999E0,7.0606995E-1,-2.4741313E0,9.962402E-2,-2.0434488E-1,1.661692E-1,2.136794E-3,-5.608561E-2,1.9709961E-1,-2.7814128E-2,-2.4256174E-1],"categories":[],"categories_nodes":[],"categories_segments":[],"categories_sizes":[],"default_left":[0,0,0,0,0,0,0,0,0,0,0,0,0,0,0],"id":92,"left_children":[1,3,5,7,9,11,13,-1,-1,-1,-1,-1,-1,-1,-1],"loss_changes":[3.704677E1,2.5463093E1,2.5583868E1,3.8621048E1,2.4075102E1,1.162044E1,9.622799E0,0E0,0E0,0E0,0E0,0E0,0E0,0E0,0E0],"parents":[2147483647,0,0,1,1,2,2,3,3,4,4,5,5,6,6],"right_children":[2,4,6,8,10,12,14,-1,-1,-1,-1,-1,-1,-1,-1],"split_conditions":[8.8E0,5.94E1,5.09E1,5.19E1,1E0,5.04E1,2E0,9.962402E-2,-2.0434488E-1,1.661692E-1,2.136794E-3,-5.608561E-2,1.9709961E-1,-2.7814128E-2,-2.4256174E-1],"split_indices":[2,0,0,0,1,0,5,0,0,0,0,0,0,0,0],"split_type":[0,0,0,0,0,0,0,0,0,0,0,0,0,0,0],"sum_hessian":[4.2E1,3.1E1,1.1E1,9E0,2.2E1,3E0,8E0,4E0,5E0,1E1,1.2E1,2E0,1E0,2E0,6E0],"tree_param":{"num_deleted":"0","num_feature":"6","num_nodes":"15","size_leaf_vector":"1"}},{"base_weights":[6.4253785E-2,2.2588378E-1,-1.2112698E-1,6.405713E-2,-2.0352783E0,-1.0138305E-1,2.9322753E-2,-2.0358236E-1,-2.0270996E-2],"categories":[],"categories_nodes":[],"categories_segments":[],"categories_sizes":[],"default_left":[0,0,0,0,0,0,0,0,0],"id":93,"left_children":[1,-1,3,5,7,-1,-1,-1,-1],"loss_changes":[2.4383446E1,0E0,1.6081541E1,1.7377977E1,2.9866867E0,0E0,0E0,0E0,0E0],"parents":[2147483647,0,0,2,2,3,3,4,4],"right_children":[2,-1,4,6,8,-1,-1,-1,-1],"split_conditions":[1E0,2.2588378E-1,6E0,3.7E-1,8.39E1,-1.0138305E-1,2.9322753E-2,-2.0358236E-1,-2.0270996E-2],"split_indices":[2,0,5,3,0,0,0,0,0],"split_type":[0,0,0,0,0,0,0,0,0],"sum_hessian":[4.6E1,2E0,4.4E1,4.1E1,3E0,7E0,3.4E1,2E0,1E0],"tree_param":{"num_deleted":"0","num_feature":"6","num_nodes":"9","size_leaf_vector":"1"}},{"base_weights":[-1.4733748E-1,1.1920675E0,-6.2992907E-1,-7.594147E-1,1.9269409E0,-4.390357E-1,-1.9140136E-1,1.16022944E-1,-1.5835285E-1,2.2249022E-2,2.5523046E-1,-7.109629E-2,6.07118E-2],"categories":[],"categories_nodes":[],"categories_segments":[],"categories_sizes":[],"default_left":[0,0,0,0,0,0,0,0,0,0,0,0,0],"id":94,"left_children":[1,3,5,7,9,11,-1,-1,-1,-1,-1,-1,-1],"loss_changes":[2.9191881E1,1.8672457E1,1.005299E1,1.3654022E1,1.7861473E1,1.7373276E1,0E0,0E0,0E0,0E0,0E0,0E0,0E0],"parents":[2147483647,0,0,1,1,2,2,3,3,4,4,5,5],"right_children":[2,4,6,8,10,12,-1,-1,-1,-1,-1,-1,-1],"split_conditions":[5.4E0,5.94E1,4E0,5.19E1,3E0,7.5E-1,-1.9140136E-1,1.16022944E-1,-1.5835285E-1,2.2249022E-2,2.5523046E-1,-7.109629E-2,6.07118E-2],"split_indices":[2,0,1,0,5,4,0,0,0,0,0,0,0],"split_type":[0,0,0,0,0,0,0,0,0,0,0,0,0],"sum_hessian":[4.3E1,1.1E1,3.2E1,3E0,8E0,3E1,2E0,1E0,2E0,4E0,4E0,2.2E1,8E0],"tree_param":{"num_deleted":"0","num_feature":"6","num_nodes":"13","size_leaf_vector":"1"}},{"base_weights":[1.2514981E-2,1.7829996E0,-4.3045384E-1,5.513916E-2,2.523408E-1,-1.0436928E0,4.976603E-1,7.904623E-2,-7.169434E-2,-4.7091898E-2,-2.3553832E-1,1.3031657E-1,-1.8470703E-2],"categories":[],"categories_nodes":[],"categories_segments":[],"categories_sizes":[],"default_left":[0,0,0,0,0,0,0,0,0,0,0,0,0],"id":95,"left_children":[1,3,5,7,-1,9,11,-1,-1,-1,-1,-1,-1],"loss_changes":[3.5275356E1,2.11502E1,2.1009014E1,5.323103E0,0E0,1.7293095E1,1.2739094E1,0E0,0E0,0E0,0E0,0E0,0E0],"parents":[2147483647,0,0,1,1,2,2,3,3,5,5,6,6],"right_children":[2,4,6,8,-1,10,12,-1,-1,-1,-1,-1,-1],"split_conditions":[3.5E0,5.8E-1,7E-1,7.96E1,2.523408E-1,2E0,1E0,7.904623E-2,-7.169434E-2,-4.7091898E-2,-2.3553832E-1,1.3031657E-1,-1.8470703E-2],"split_indices":[2,3,3,0,0,1,1,0,0,0,0,0,0],"split_type":[0,0,0,0,0,0,0,0,0,0,0,0,0],"sum_hessian":[4.3E1,8E0,3.5E1,4E0,4E0,2.1E1,1.4E1,2E0,2E0,1.8E1,3E0,5E0,9E0],"tree_param":{"num_deleted":"0","num_feature":"6","num_nodes":"13","size_leaf_vector":"1"}},{"base_weights":[6.939426E-2,5.0954366E-1,-1.0532461E0,8.771035E-1,-1.2906595E0,-2.4873535E-1,-3.96784E-1,-5.307373E-2,1.13776274E-1,-1.8134888E-1,3.529297E-2,8.0268554E-2,-1.072161E-1],"categories":[],"categories_nodes":[],"categories_segments":[],"categories_sizes":[],"default_left":[0,0,0,0,0,0,0,0,0,0,0,0,0],"id":96,"left_children":[1,3,5,7,9,-1,11,-1,-1,-1,-1,-1,-1],"loss_changes":[2.2772505E1,2.2967564E1,1.6311779E1,2.4456244E1,1.1143693E1,0E0,1.5874788E1,0E0,0E0,0E0,0E0,0E0,0E0],"parents":[2147483647,0,0,1,1,2,2,3,3,4,4,6,6],"right_children":[2,4,6,8,10,-1,12,-1,-1,-1,-1,-1,-1],"split_conditions":[2E0,1.07E1,5.56E1,3.6E-1,1E0,-2.4873535E-1,5.6E0,-5.307373E-2,1.13776274E-1,-1.8134888E-1,3.529297E-2,8.0268554E-2,-1.072161E-1],"split_indices":[1,2,0,3,1,0,2,0,0,0,0,0,0],"split_type":[0,0,0,0,0,0,0,0,0,0,0,0,0],"sum_hessian":[4.4E1,3.2E1,1.2E1,2.7E1,5E0,2E0,1E1,7E0,2E1,3E0,2E0,4E0,6E0],"tree_param":{"num_deleted":"0","num_feature":"6","num_nodes":"13","size_leaf_vector":"1"}},{"base_weights":[5.8385972E-2,-1.9888529E-1,1.5569197E0,-5.77726E-1,4.9628702E-1,-7.522135E-2,2.7438476E0,1.0538779E-2,-1.6090278E-1,1.2291224E-1,-2.9426813E-2,7.275228E-2,2.9309407E-1],"categories":[],"categories_nodes":[],"categories_segments":[],"categories_sizes":[],"default_left":[0,0,0,0,0,0,0,0,0,0,0,0,0],"id":97,"left_children":[1,3,5,7,9,-1,11,-1,-1,-1,-1,-1,-1],"loss_changes":[1.842954E1,1.108446E1,2.3327816E1,2.7725403E1,1.4046952E1,0E0,5.10511E0,0E0,0E0,0E0,0E0,0E0,0E0],"parents":[2147483647,0,0,1,1,2,2,3,3,4,4,6,6],"right_children":[2,4,6,8,10,-1,12,-1,-1,-1,-1,-1,-1],"split_conditions":[9.2E-1,7.5E-1,7.8E1,5.9E-1,8.5E-1,-7.522135E-2,4.7E-1,1.0538779E-2,-1.6090278E-1,1.2291224E-1,-2.9426813E-2,7.275228E-2,2.9309407E-1],"split_indices":[3,4,0,4,4,0,4,0,0,0,0,0,0],"split_type":[0,0,0,0,0,0,0,0,0,0,0,0,0],"sum_hessian":[4.6E1,4E1,6E0,2.6E1,1.4E1,2E0,4E0,1.8E1,8E0,6E0,8E0,2E0,2E0],"tree_param":{"num_deleted":"0","num_feature":"6","num_nodes":"13","size_leaf_vector":"1"}},{"base_weights":[-4.4317625E-2,-4.7522584E-1,7.664051E-1,1.1492339E-1,-1.6670166E0,1.4643555E0,-1.6935349E0,-5.79794E-2,7.553134E-2,-4.628906E-2,-1.6406529E-1,2.628141E-1,6.6771574E-2,-1.6134359E-1,-2.8950194E-2],"categories":[],"categories_nodes":[],"categories_segments":[],"categories_sizes":[],"default_left":[0,0,0,0,0,0,0,0,0,0,0,0,0,0,0],"id":98,"left_children":[1,3,5,7,9,11,13,-1,-1,-1,-1,-1,-1,-1,-1],"loss_changes":[1.6084833E1,2.129161E1,2.9950592E1,1.5305854E1,2.9906578E0,1.2163723E1,9.9205303E-1,0E0,0E0,0E0,0E0,0E0,0E0,0E0,0E0],"parents":[2147483647,0,0,1,1,2,2,3,3,4,4,5,5,6,6],"right_children":[2,4,6,8,10,12,14,-1,-1,-1,-1,-1,-1,-1,-1],"split_conditions":[7.5E-1,5.9E-1,4E0,7.3E0,2E0,7.7E-1,9.46E1,-5.79794E-2,7.553134E-2,-4.628906E-2,-1.6406529E-1,2.628141E-1,6.6771574E-2,-1.6134359E-1,-2.8950194E-2],"split_indices":[4,4,1,2,5,4,0,0,0,0,0,0,0,0,0],"split_type":[0,0,0,0,0,0,0,0,0,0,0,0,0,0,